<?xml version="1.0"?>
<opencv_storage>
<cascade>
  <stageType>BOOST</stageType>
  <featureType>LBP</featureType>
  <height>32</height>
  <width>32</width>
  <stageParams>
    <boostType>GAB</boostType>
    <minHitRate>9.9500000476837158e-01</minHitRate>
    <maxFalseAlarm>5.0000000000000000e-01</maxFalseAlarm>
    <weightTrimRate>9.4999999999999996e-01</weightTrimRate>
    <maxDepth>1</maxDepth>
    <maxWeakCount>100</maxWeakCount></stageParams>
  <featureParams>
    <maxCatCount>256</maxCatCount>
    <featSize>1</featSize></featureParams>
  <stageNum>17</stageNum>
  <stages>
    <!-- stage 0 -->
    <_>
      <maxWeakCount>5</maxWeakCount>
      <stageThreshold>-1.4631243944168091e+00</stageThreshold>
      <weakClassifiers>
        <_>
          <internalNodes>
            0 -1 30 -545062982 -8326833 -205473028 -2671635 -1954153553
            -2652017 -105260625 -266337</internalNodes>
          <leafValues>
            -7.5777411460876465e-01 5.6401383876800537e-01</leafValues></_>
        <_>
          <internalNodes>
            0 -1 38 -70195274 -6991211 994905640 -204672936 -880681636
            -205217553 -1082070328 -4875872</internalNodes>
          <leafValues>
            -6.6846495866775513e-01 4.3246465921401978e-01</leafValues></_>
        <_>
          <internalNodes>
            0 -1 82 -121502076 -895242582 1089368618 -2141229200
            -1216399543 -1078503566 -209717318 -1157649157</internalNodes>
          <leafValues>
            -5.0760495662689209e-01 6.0505956411361694e-01</leafValues></_>
        <_>
          <internalNodes>
            0 -1 72 -366334264 -656397078 2129440290 -522621302
            -1485146606 422540789 -1761761720 -85282821</internalNodes>
          <leafValues>
            -4.4301581382751465e-01 6.3931912183761597e-01</leafValues></_>
        <_>
          <internalNodes>
            0 -1 86 -68899166 -224428251 -488154494 -788900373
            -1227008448 812269557 -305686262 -17956357</internalNodes>
          <leafValues>
            -4.0805250406265259e-01 7.0927906036376953e-01</leafValues></_></weakClassifiers></_>
    <!-- stage 1 -->
    <_>
      <maxWeakCount>6</maxWeakCount>
      <stageThreshold>-1.2655327320098877e+00</stageThreshold>
      <weakClassifiers>
        <_>
          <internalNodes>
            0 -1 51 1359893980 -673346087 -103266307 -37505 -221449249
            -72818483 -1683252241 -4200289</internalNodes>
          <leafValues>
            -7.0439189672470093e-01 3.7987011671066284e-01</leafValues></_>
        <_>
          <internalNodes>
            0 -1 117 -780656446 -78387212 -564118543 -645703427
            -659105112 -962513289 -1170819682 -1228227176</internalNodes>
          <leafValues>
            -4.3032884597778320e-01 5.7142645120620728e-01</leafValues></_>
        <_>
          <internalNodes>
            0 -1 19 -1114328328 -638316464 -921624927 1608079752
            -215695362 -165013077 143359922 -1108865796</internalNodes>
          <leafValues>
            -6.2707221508026123e-01 3.8764369487762451e-01</leafValues></_>
        <_>
          <internalNodes>
            0 -1 109 853541504 -195415996 527332576 -713449220
            -1552780628 -706184410 1463148286 -1142193457</internalNodes>
          <leafValues>
            -4.0947574377059937e-01 5.8726030588150024e-01</leafValues></_>
        <_>
          <internalNodes>
            0 -1 62 48171631 928875079 1430598029 386644651 1904933617
            -79069045 -1144442178 671755583</internalNodes>
          <leafValues>
            -5.6937247514724731e-01 4.1322270035743713e-01</leafValues></_>
        <_>
          <internalNodes>
            0 -1 3 17173808 387131481 1503728541 -136703600 2138065087
            -331742255 1014655671 -1094631424</internalNodes>
          <leafValues>
            -5.2450019121170044e-01 4.7837233543395996e-01</leafValues></_></weakClassifiers></_>
    <!-- stage 2 -->
    <_>
      <maxWeakCount>5</maxWeakCount>
      <stageThreshold>-1.1094094514846802e+00</stageThreshold>
      <weakClassifiers>
        <_>
          <internalNodes>
            0 -1 15 -67698690 -305310373 -76161545 -15122990 -1474565425
            -873662215 -309725953 -805663521</internalNodes>
          <leafValues>
            -6.8337732553482056e-01 2.6696833968162537e-01</leafValues></_>
        <_>
          <internalNodes>
            0 -1 99 -660643632 1608860886 67965006 1429539402 -486374520
            -1870520304 425313179 51974799</internalNodes>
          <leafValues>
            -4.9717035889625549e-01 4.0378442406654358e-01</leafValues></_>
        <_>
          <internalNodes>
            0 -1 52 -1905283250 214038526 -1851304722 2010774983
            -805308379 945119756 -1043158017 -1942020771</internalNodes>
          <leafValues>
            -6.5023791790008545e-01 3.3997410535812378e-01</leafValues></_>
        <_>
          <internalNodes>
            0 -1 61 -765899576 -597049186 269484858 -652672950
            -925326952 -805076920 -1069000246 302121627</internalNodes>
          <leafValues>
            -4.9218031764030457e-01 4.2358198761940002e-01</leafValues></_>
        <_>
          <internalNodes>
            0 -1 58 -774409528 -1153183272 1912755936 844206784
            -478660275 -711336707 -1072645408 783289176</internalNodes>
          <leafValues>
            -6.9241791963577271e-01 3.2844626903533936e-01</leafValues></_></weakClassifiers></_>
    <!-- stage 3 -->
    <_>
      <maxWeakCount>6</maxWeakCount>
      <stageThreshold>-1.1129165887832642e+00</stageThreshold>
      <weakClassifiers>
        <_>
          <internalNodes>
            0 -1 37 -578822322 -748692609 -634279414 -44314377
            -652617656 -503086373 -29659297 -350491733</internalNodes>
          <leafValues>
            -7.3878365755081177e-01 1.7691342532634735e-01</leafValues></_>
        <_>
          <internalNodes>
            0 -1 74 -559120192 -654426706 -622449118 -664458247
            -1704728818 -998836435 -1090864501 -22307398</internalNodes>
          <leafValues>
            -4.2895007133483887e-01 5.7916647195816040e-01</leafValues></_>
        <_>
          <internalNodes>
            0 -1 29 -1003873952 -559538784 1056845538 2000105343
            1027015344 276790896 1450167758 -1208286054</internalNodes>
          <leafValues>
            -4.1807216405868530e-01 5.2773290872573853e-01</leafValues></_>
        <_>
          <internalNodes>
            0 -1 76 -251996948 -938605496 -1055899584 -656959334
            -804110332 -1550680064 -763323896 -1823491954</internalNodes>
          <leafValues>
            -4.5085299015045166e-01 5.0663554668426514e-01</leafValues></_>
        <_>
          <internalNodes>
            0 -1 93 -115311872 -756185800 1866429962 -1224886025
            -1495342010 -451772551 1398330826 -1142016069</internalNodes>
          <leafValues>
            -3.7977844476699829e-01 6.1875545978546143e-01</leafValues></_>
        <_>
          <internalNodes>
            0 -1 44 -621287922 -803453537 -1711031758 -771325853
            1158483968 1564820096 -381731932 2054908627</internalNodes>
          <leafValues>
            -6.4699798822402954e-01 3.8782370090484619e-01</leafValues></_></weakClassifiers></_>
    <!-- stage 4 -->
    <_>
      <maxWeakCount>6</maxWeakCount>
      <stageThreshold>-1.0463614463806152e+00</stageThreshold>
      <weakClassifiers>
        <_>
          <internalNodes>
            0 -1 92 -613071139 -608232487 2147254271 1609694207
            -1167028232 -1358041 -632908293 -1147492725</internalNodes>
          <leafValues>
            -5.0128537416458130e-01 7.3770493268966675e-01</leafValues></_>
        <_>
          <internalNodes>
            0 -1 25 8651790 1816118045 -168267361 -72709102 -987189435
            -51433296 -660542597 -1443190259</internalNodes>
          <leafValues>
            -6.1962789297103882e-01 3.5917869210243225e-01</leafValues></_>
        <_>
          <internalNodes>
            0 -1 12 -799913736 -195166016 536889369 1574001449
            -1878994816 -1660418044 302688906 453126154</internalNodes>
          <leafValues>
            -4.8705935478210449e-01 4.3415245413780212e-01</leafValues></_>
        <_>
          <internalNodes>
            0 -1 31 -1800785724 -732026258 989331323 1583217405
            -1485593366 -701071535 1014936826 -1419891363</internalNodes>
          <leafValues>
            -4.1497728228569031e-01 5.3276014328002930e-01</leafValues></_>
        <_>
          <internalNodes>
            0 -1 110 -100532136 1436356742 1150169 520896541 537436312
            -536346456 807440554 977941128</internalNodes>
          <leafValues>
            -5.0685751438140869e-01 4.6468991041183472e-01</leafValues></_>
        <_>
          <internalNodes>
            0 -1 45 -1603515692 -558973316 1676064346 2034367217
            -59984160 -698419341 -1132512001 -1689369330</internalNodes>
          <leafValues>
            -3.8550317287445068e-01 5.8524286746978760e-01</leafValues></_></weakClassifiers></_>
    <!-- stage 5 -->
    <_>
      <maxWeakCount>6</maxWeakCount>
      <stageThreshold>-7.2358256578445435e-01</stageThreshold>
      <weakClassifiers>
        <_>
          <internalNodes>
            0 -1 13 769406271 727736246 -39994433 918296872 -10993731
            -23106757 -373620737 -1463810004</internalNodes>
          <leafValues>
            -6.5481352806091309e-01 2.3956723511219025e-01</leafValues></_>
        <_>
          <internalNodes>
            0 -1 103 72684917 1037311133 -187319491 -50061643 1500790365
            -338839115 1572661101 145235296</internalNodes>
          <leafValues>
            -6.5412938594818115e-01 3.1381502747535706e-01</leafValues></_>
        <_>
          <internalNodes>
            0 -1 64 789325376 1225595767 396148693 -1632338982
            1505642135 -19384259 -114783233 -1376314500</internalNodes>
          <leafValues>
            -7.2940689325332642e-01 2.9466763138771057e-01</leafValues></_>
        <_>
          <internalNodes>
            0 -1 1 76555453 -1149534662 -247629441 1853673282 -582990989
            -1144553025 -796388814 -1368387468</internalNodes>
          <leafValues>
            -5.6326806545257568e-01 4.1414004564285278e-01</leafValues></_>
        <_>
          <internalNodes>
            0 -1 87 894721821 1074358634 -1664074052 -1126126877
            1791441317 -340775156 -220157427 -662425943</internalNodes>
          <leafValues>
            -4.7163781523704529e-01 4.9363324046134949e-01</leafValues></_>
        <_>
          <internalNodes>
            0 -1 27 471598909 -1496839874 -574432781 -435536177
            1549041523 -286754591 -1475415361 -1639826932</internalNodes>
          <leafValues>
            -4.8738682270050049e-01 4.9078342318534851e-01</leafValues></_></weakClassifiers></_>
    <!-- stage 6 -->
    <_>
      <maxWeakCount>8</maxWeakCount>
      <stageThreshold>-1.0081790685653687e+00</stageThreshold>
      <weakClassifiers>
        <_>
          <internalNodes>
            0 -1 42 -1877417828 -784072574 151524560 1393758417
            -668948352 -930611136 -1710978822 -6572885</internalNodes>
          <leafValues>
            -5.4606741666793823e-01 2.7741935849189758e-01</leafValues></_>
        <_>
          <internalNodes>
            0 -1 20 -619180104 -1221078756 -1229881686 -418006370
            -1314020929 42667475 3108782 -184178472</internalNodes>
          <leafValues>
            -6.1079180240631104e-01 2.5085613131523132e-01</leafValues></_>
        <_>
          <internalNodes>
            0 -1 105 -688255414 -590401926 587135615 -127959045
            -2038582868 -1862997411 -1084768278 -1418039633</internalNodes>
          <leafValues>
            -3.2826671004295349e-01 5.2952486276626587e-01</leafValues></_>
        <_>
          <internalNodes>
            0 -1 5 1613012592 -197421549 1870080986 -1153472351
            -621746288 -1636368834 255719418 -1211142742</internalNodes>
          <leafValues>
            -3.3044585585594177e-01 5.1253467798233032e-01</leafValues></_>
        <_>
          <internalNodes>
            0 -1 47 1029017498 -468173544 -1642295102 1695618055
            -1099955664 908204049 -1139752962 358555821</internalNodes>
          <leafValues>
            -4.7807806730270386e-01 3.9721095561981201e-01</leafValues></_>
        <_>
          <internalNodes>
            0 -1 11 -452921412 -550218347 -581930594 -656601072
            -228876454 2022877210 -658465172 598661533</internalNodes>
          <leafValues>
            -5.4946476221084595e-01 3.3363601565361023e-01</leafValues></_>
        <_>
          <internalNodes>
            0 -1 116 -386803014 1509685501 1633582847 -585712207
            -563151444 -587931916 -751505717 -1828154405</internalNodes>
          <leafValues>
            -3.3258268237113953e-01 5.8590114116668701e-01</leafValues></_>
        <_>
          <internalNodes>
            0 -1 102 1351916176 -220397488 1091850345 1376258189
            -1723431840 -1341648751 -1308378454 -1952779672</internalNodes>
          <leafValues>
            -3.9290553331375122e-01 4.9544465541839600e-01</leafValues></_></weakClassifiers></_>
    <!-- stage 7 -->
    <_>
      <maxWeakCount>8</maxWeakCount>
      <stageThreshold>-1.3024610280990601e+00</stageThreshold>
      <weakClassifiers>
        <_>
          <internalNodes>
            0 -1 57 -788137989 -78081758 -787382016 -577792864
            1887687360 1082737025 1672206123 -471885421</internalNodes>
          <leafValues>
            -5.8542138338088989e-01 3.5403725504875183e-01</leafValues></_>
        <_>
          <internalNodes>
            0 -1 77 -2077430040 8508139 11812878 -89612156 -469567216
            -1271299966 -1456868496 -102045480</internalNodes>
          <leafValues>
            -5.2126729488372803e-01 3.8957732915878296e-01</leafValues></_>
        <_>
          <internalNodes>
            0 -1 84 -738494206 -1072691164 -1038990336 -1433926544
            675786752 -1836651999 -489825984 -68712304</internalNodes>
          <leafValues>
            -5.2974826097488403e-01 3.7690207362174988e-01</leafValues></_>
        <_>
          <internalNodes>
            0 -1 70 -223738400 -1062719296 1922168400 -622951616
            -1507536792 -2108669935 -336986192 -67507504</internalNodes>
          <leafValues>
            -4.5878359675407410e-01 4.4391933083534241e-01</leafValues></_>
        <_>
          <internalNodes>
            0 -1 17 -816609802 -103294720 -587136124 -6310835 1981297788
            -1488936312 587268637 1433604865</internalNodes>
          <leafValues>
            -4.2604410648345947e-01 4.9860888719558716e-01</leafValues></_>
        <_>
          <internalNodes>
            0 -1 7 -275590230 767988640 -2074278649 -443858944
            -1996125285 17432608 118476875 60539272</internalNodes>
          <leafValues>
            -5.6651717424392700e-01 3.7897068262100220e-01</leafValues></_>
        <_>
          <internalNodes>
            0 -1 96 -1575315824 -1965638044 712701012 -176574999
            -1208494240 -1212157006 -1229263718 -5343429</internalNodes>
          <leafValues>
            -4.0450394153594971e-01 5.6860524415969849e-01</leafValues></_>
        <_>
          <internalNodes>
            0 -1 50 -968277333 1762889753 -581840831 2115283410
            -1879005013 -494876007 1921024577 9326616</internalNodes>
          <leafValues>
            -5.9221762418746948e-01 3.7627720832824707e-01</leafValues></_></weakClassifiers></_>
    <!-- stage 8 -->
    <_>
      <maxWeakCount>7</maxWeakCount>
      <stageThreshold>-8.6449038982391357e-01</stageThreshold>
      <weakClassifiers>
        <_>
          <internalNodes>
            0 -1 90 -1286098688 -1067204542 -486348286 -121677550
            -549349376 -266207213 -228540380 -68158221</internalNodes>
          <leafValues>
            -6.9702601432800293e-01 2.0718231797218323e-01</leafValues></_>
        <_>
          <internalNodes>
            0 -1 83 -1235537304 -528300818 -1859377688 -1293971244
            -1148816892 -2032955389 -118827680 -536884622</internalNodes>
          <leafValues>
            -5.2511805295944214e-01 3.7506699562072754e-01</leafValues></_>
        <_>
          <internalNodes>
            0 -1 85 -208723870 -493223534 1176144338 -462944882
            -1331083264 1075839118 1401639138 -1276395285</internalNodes>
          <leafValues>
            -4.3508359789848328e-01 4.6725454926490784e-01</leafValues></_>
        <_>
          <internalNodes>
            0 -1 40 -1977138120 -223384012 580249148 -572822812
            -29742833 -275828240 -755427972 -1092209525</internalNodes>
          <leafValues>
            -3.7844705581665039e-01 5.4775613546371460e-01</leafValues></_>
        <_>
          <internalNodes>
            0 -1 67 1978462594 -779892603 -2003668916 1699811598
            1912602916 34734592 -1046853461 1420403323</internalNodes>
          <leafValues>
            -4.9532988667488098e-01 4.6397370100021362e-01</leafValues></_>
        <_>
          <internalNodes>
            0 -1 75 -1058578336 -867643100 -938387056 -288194351
            -1820295145 -564133887 -2139004654 -1143739431</internalNodes>
          <leafValues>
            -5.7172268629074097e-01 3.9004394412040710e-01</leafValues></_>
        <_>
          <internalNodes>
            0 -1 61 -1347092240 -738197296 16846864 -1304688374
            -1920984432 1342301312 -1610483320 -1707366880</internalNodes>
          <leafValues>
            -4.9048948287963867e-01 4.8019501566886902e-01</leafValues></_></weakClassifiers></_>
    <!-- stage 9 -->
    <_>
      <maxWeakCount>7</maxWeakCount>
      <stageThreshold>-8.9622098207473755e-01</stageThreshold>
      <weakClassifiers>
        <_>
          <internalNodes>
            0 -1 24 1451422511 1599172811 -1365807058 -402671
            -1874742630 1124143115 -1415845082 -70389341</internalNodes>
          <leafValues>
            -6.1367839574813843e-01 8.9136488735675812e-02</leafValues></_>
        <_>
          <internalNodes>
            0 -1 49 -1027127281 1847112348 -401010049 -2054140333
            -190988247 -847159096 -518554781 1141642328</internalNodes>
          <leafValues>
            -5.7075011730194092e-01 2.4456164240837097e-01</leafValues></_>
        <_>
          <internalNodes>
            0 -1 89 -410388280 -930637610 206008468 -416087069 181287730
            696385537 -24828750 -1339031981</internalNodes>
          <leafValues>
            -3.8917160034179688e-01 3.6704310774803162e-01</leafValues></_>
        <_>
          <internalNodes>
            0 -1 2 2083157881 282280705 2033598465 -40107855 -678558895
            1895890954 1097416835 809578666</internalNodes>
          <leafValues>
            -4.5097404718399048e-01 3.6063668131828308e-01</leafValues></_>
        <_>
          <internalNodes>
            0 -1 112 -167671104 1610953232 605061470 -1917216744
            134906032 -1815576440 858626 -2084388705</internalNodes>
          <leafValues>
            -4.2921522259712219e-01 3.5755199193954468e-01</leafValues></_>
        <_>
          <internalNodes>
            0 -1 16 -280298798 -187095531 1592872305 -585176395 -7167845
            -1678101128 906284386 -1154269744</internalNodes>
          <leafValues>
            -3.1739515066146851e-01 5.3612256050109863e-01</leafValues></_>
        <_>
          <internalNodes>
            0 -1 54 -759459134 2057438836 -1279287308 -185127192
            -159385624 -1158201998 503166423 -219417156</internalNodes>
          <leafValues>
            -3.7083324790000916e-01 4.9999111890792847e-01</leafValues></_></weakClassifiers></_>
    <!-- stage 10 -->
    <_>
      <maxWeakCount>8</maxWeakCount>
      <stageThreshold>-1.0126426219940186e+00</stageThreshold>
      <weakClassifiers>
        <_>
          <internalNodes>
            0 -1 10 -182335288 -792625020 1364676915 -547516235
            -2012630912 461422786 982966463 -609271649</internalNodes>
          <leafValues>
            -5.3597652912139893e-01 2.9680365324020386e-01</leafValues></_>
        <_>
          <internalNodes>
            0 -1 26 1777066820 1828845254 22073594 1027626419 -243268899
            1446367283 1485013221 -381695717</internalNodes>
          <leafValues>
            -6.1791175603866577e-01 2.2246895730495453e-01</leafValues></_>
        <_>
          <internalNodes>
            0 -1 114 -273644536 -780314706 -320733529 -673456269
            -129380903 -127410320 -2043225089 -1146382421</internalNodes>
          <leafValues>
            -2.6812255382537842e-01 5.9217602014541626e-01</leafValues></_>
        <_>
          <internalNodes>
            0 -1 78 -1520445033 1980989863 -788406068 331851068
            1797737414 -326154153 1343451206 1375024103</internalNodes>
          <leafValues>
            -4.7378847002983093e-01 3.4929913282394409e-01</leafValues></_>
        <_>
          <internalNodes>
            0 -1 94 -548890952 -759918781 -1477543304 -206174426
            960493812 185065143 -1252597777 -81023590</internalNodes>
          <leafValues>
            -2.8596958518028259e-01 6.0276174545288086e-01</leafValues></_>
        <_>
          <internalNodes>
            0 -1 32 -1123306108 -778065235 514816620 -1080308090
            930973249 -1054957575 712406202 -135294460</internalNodes>
          <leafValues>
            -3.6013320088386536e-01 4.9096086621284485e-01</leafValues></_>
        <_>
          <internalNodes>
            0 -1 113 -686864224 -738197563 2075901305 1434005215
            -35766624 -1389625868 -1084425219 -1145417105</internalNodes>
          <leafValues>
            -3.1599637866020203e-01 5.6425154209136963e-01</leafValues></_>
        <_>
          <internalNodes>
            0 -1 66 -593440288 -1672015398 270177250 -2065611740
            1893830724 1755021350 -1829872752 1481348092</internalNodes>
          <leafValues>
            -6.6170603036880493e-01 2.8906965255737305e-01</leafValues></_></weakClassifiers></_>
    <!-- stage 11 -->
    <_>
      <maxWeakCount>8</maxWeakCount>
      <stageThreshold>-9.9421918392181396e-01</stageThreshold>
      <weakClassifiers>
        <_>
          <internalNodes>
            0 -1 68 1132325634 -1022115513 -1596407050 -647522857
            8448067 -1379236757 -133474114 1487606271</internalNodes>
          <leafValues>
            -7.0663267374038696e-01 -4.5275591313838959e-02</leafValues></_>
        <_>
          <internalNodes>
            0 -1 69 -1237123888 -971099072 20556940 -1023597911
            839716941 -2101835222 -922752380 -1930593081</internalNodes>
          <leafValues>
            -5.6782758235931396e-01 1.8717734515666962e-01</leafValues></_>
        <_>
          <internalNodes>
            0 -1 22 -948871171 1600272882 1876930403 -1350703510
            -1879670956 1584758099 -168856195 -1209061036</internalNodes>
          <leafValues>
            -3.3395710587501526e-01 3.9911773800849915e-01</leafValues></_>
        <_>
          <internalNodes>
            0 -1 88 -1270066518 -1946277718 1790573498 658213409 -246238
            -2023755939 -1619560526 -201394204</internalNodes>
          <leafValues>
            -3.6259838938713074e-01 3.9228719472885132e-01</leafValues></_>
        <_>
          <internalNodes>
            0 -1 8 218639472 2073297209 -1190076130 197641738 134225401
            -911734752 999905589 84438276</internalNodes>
          <leafValues>
            -6.3179802894592285e-01 2.3825064301490784e-01</leafValues></_>
        <_>
          <internalNodes>
            0 -1 0 1096258924 -130006151 -2146363059 -713018990
            1767338458 939884577 1373221159 619292875</internalNodes>
          <leafValues>
            -5.5434763431549072e-01 2.6650294661521912e-01</leafValues></_>
        <_>
          <internalNodes>
            0 -1 9 -242381371 1533964086 2134884335 1381756302
            1064713887 -1090552066 880513788 -1744838904</internalNodes>
          <leafValues>
            -3.4045282006263733e-01 4.9138158559799194e-01</leafValues></_>
        <_>
          <internalNodes>
            0 -1 59 1905299942 135356624 1551903424 1113934216 444782809
            -756610543 -1326682225 1916852455</internalNodes>
          <leafValues>
            -5.6042098999023438e-01 2.8400388360023499e-01</leafValues></_></weakClassifiers></_>
    <!-- stage 12 -->
    <_>
      <maxWeakCount>10</maxWeakCount>
      <stageThreshold>-1.3140815496444702e+00</stageThreshold>
      <weakClassifiers>
        <_>
          <internalNodes>
            0 -1 104 -1306564120 -607190704 1032556639 358213005
            -1553035646 -259648886 -804860213 -1952515110</internalNodes>
          <leafValues>
            -5.3560370206832886e-01 1.8110236525535583e-01</leafValues></_>
        <_>
          <internalNodes>
            0 -1 65 -1087745178 1684538826 1033929952 634906714
            421455680 -2137814861 -1513015467 -1435424945</internalNodes>
          <leafValues>
            -6.8095749616622925e-01 1.6628473997116089e-01</leafValues></_>
        <_>
          <internalNodes>
            0 -1 6 314780025 1885094231 -769414476 1046320520 857889593
            -323948157 -870637134 375665252</internalNodes>
          <leafValues>
            -5.4775387048721313e-01 2.2033466398715973e-01</leafValues></_>
        <_>
          <internalNodes>
            0 -1 18 -749413232 -1047179246 -662037064 58760018
            1364234412 -1282889711 961342887 971309295</internalNodes>
          <leafValues>
            -4.3798398971557617e-01 3.1781965494155884e-01</leafValues></_>
        <_>
          <internalNodes>
            0 -1 71 1133597118 872489215 1779009794 -1177436079 88959500
            1188722080 -97879393 -2144148761</internalNodes>
          <leafValues>
            -4.1848397254943848e-01 3.4611120820045471e-01</leafValues></_>
        <_>
          <internalNodes>
            0 -1 77 1285787844 2089992385 -2046689250 -255242198
            1930473628 -1304362718 304837526 -880309589</internalNodes>
          <leafValues>
            -3.8126567006111145e-01 3.8785433769226074e-01</leafValues></_>
        <_>
          <internalNodes>
            0 -1 36 -1591974668 281956626 394641690 701072887 -150746365
            -779497154 1988382937 -2027827815</internalNodes>
          <leafValues>
            -4.7921359539031982e-01 3.3075845241546631e-01</leafValues></_>
        <_>
          <internalNodes>
            0 -1 95 -144303040 -687871027 -616583186 -415424651
            -646515136 893787634 -2013398193 -358087206</internalNodes>
          <leafValues>
            -3.6674094200134277e-01 4.2821413278579712e-01</leafValues></_>
        <_>
          <internalNodes>
            0 -1 4 -653649706 -679624800 788520566 -579093259 -168483344
            -1777295811 2129917942 -1723083779</internalNodes>
          <leafValues>
            -3.7754502892494202e-01 4.5134836435317993e-01</leafValues></_>
        <_>
          <internalNodes>
            0 -1 97 939245455 -1101644547 -819986455 -835067981
            -338411784 938967035 -109199364 -2123067955</internalNodes>
          <leafValues>
            -3.0529779195785522e-01 5.1746362447738647e-01</leafValues></_></weakClassifiers></_>
    <!-- stage 13 -->
    <_>
      <maxWeakCount>8</maxWeakCount>
      <stageThreshold>-9.4471848011016846e-01</stageThreshold>
      <weakClassifiers>
        <_>
          <internalNodes>
            0 -1 107 -1861889060 -643510119 352367245 1538237171
            -435424607 -1534586736 -1493066597 -1435524433</internalNodes>
          <leafValues>
            -5.2121210098266602e-01 1.8333333730697632e-01</leafValues></_>
        <_>
          <internalNodes>
            0 -1 43 -1523290459 -1509870953 -469748979 -384547837
            570450759 85985443 -1415326768 68239944</internalNodes>
          <leafValues>
            -5.7857686281204224e-01 1.9028307497501373e-01</leafValues></_>
        <_>
          <internalNodes>
            0 -1 81 1753817634 715456468 1658575779 1853936338 163711809
            1734008898 554258850 70670400</internalNodes>
          <leafValues>
            -8.5065901279449463e-01 1.3496486842632294e-01</leafValues></_>
        <_>
          <internalNodes>
            0 -1 53 -190955342 -1585268717 -1290727766 -505322472
            1083947712 -383473046 2001885412 1971148573</internalNodes>
          <leafValues>
            -6.0857427120208740e-01 2.1279300749301910e-01</leafValues></_>
        <_>
          <internalNodes>
            0 -1 21 839068952 1514828115 -1072627452 1057310785
            2015957604 939680280 97939855 1804601408</internalNodes>
          <leafValues>
            -5.7545828819274902e-01 2.6374065876007080e-01</leafValues></_>
        <_>
          <internalNodes>
            0 -1 35 821576400 -258309503 1258640156 -455108198
            -1996439422 1403527328 2093085102 -1349694682</internalNodes>
          <leafValues>
            -3.9131322503089905e-01 3.9132428169250488e-01</leafValues></_>
        <_>
          <internalNodes>
            0 -1 108 -211259688 -185160489 -1640220675 2039889272
            -311451765 519667280 -1116429846 -1074800658</internalNodes>
          <leafValues>
            -2.6293638348579407e-01 5.9251379966735840e-01</leafValues></_>
        <_>
          <internalNodes>
            0 -1 41 144572658 642351370 -1727667134 -1647092479 24734449
            -1031034341 847404439 -174969278</internalNodes>
          <leafValues>
            -4.5421653985977173e-01 3.6576980352401733e-01</leafValues></_></weakClassifiers></_>
    <!-- stage 14 -->
    <_>
      <maxWeakCount>8</maxWeakCount>
      <stageThreshold>-1.2546746730804443e+00</stageThreshold>
      <weakClassifiers>
        <_>
          <internalNodes>
            0 -1 118 -749448983 1373622308 486609206 -275707645
            -1031687020 -332920656 2057940411 -81579109</internalNodes>
          <leafValues>
            -5.2812498807907104e-01 1.4615385234355927e-01</leafValues></_>
        <_>
          <internalNodes>
            0 -1 56 -1818570508 1065490920 -2129800950 216825800
            839041568 2018445571 155488550 76157013</internalNodes>
          <leafValues>
            -7.5051915645599365e-01 1.2540915608406067e-01</leafValues></_>
        <_>
          <internalNodes>
            0 -1 63 1145373198 -1715787383 1304679827 349701905
            551737918 1649012760 713224615 708718114</internalNodes>
          <leafValues>
            -6.1338239908218384e-01 1.7544271051883698e-01</leafValues></_>
        <_>
          <internalNodes>
            0 -1 79 -314802650 -995920542 2105503015 1418031011
            -278333551 494907349 2101073139 -70296993</internalNodes>
          <leafValues>
            -3.1692713499069214e-01 4.1055166721343994e-01</leafValues></_>
        <_>
          <internalNodes>
            0 -1 60 1582163688 -741234439 661617349 -170054312
            1605875681 -1753865356 -671256750 -19143203</internalNodes>
          <leafValues>
            -2.4691581726074219e-01 5.5286788940429688e-01</leafValues></_>
        <_>
          <internalNodes>
            0 -1 115 585494141 1860238131 -67585 -1083251487 1056956398
            -16828491 -318780359 -1958544063</internalNodes>
          <leafValues>
            -3.5380455851554871e-01 4.0744844079017639e-01</leafValues></_>
        <_>
          <internalNodes>
            0 -1 48 -1626425189 1560029903 -1360187038 825547481
            -739322156 859109244 854914554 -1194807347</internalNodes>
          <leafValues>
            -3.1391379237174988e-01 4.8368397355079651e-01</leafValues></_>
        <_>
          <internalNodes>
            0 -1 14 1658613885 -1227322723 -2130672049 1850820630
            460221229 1142423747 1730183700 136395525</internalNodes>
          <leafValues>
            -5.9343802928924561e-01 2.6385843753814697e-01</leafValues></_></weakClassifiers></_>
    <!-- stage 15 -->
    <_>
      <maxWeakCount>8</maxWeakCount>
      <stageThreshold>-9.6556681394577026e-01</stageThreshold>
      <weakClassifiers>
        <_>
          <internalNodes>
            0 -1 91 -52907880 -1560018624 -1990610725 -540303139
            -1199375440 -350158720 -1175393381 -74466581</internalNodes>
          <leafValues>
            -5.1008647680282593e-01 2.6213592290878296e-01</leafValues></_>
        <_>
          <internalNodes>
            0 -1 119 -222901000 1412389998 886022621 -739298468
            230540428 -1610728002 -1084906278 -2024027413</internalNodes>
          <leafValues>
            -3.0013936758041382e-01 4.3878939747810364e-01</leafValues></_>
        <_>
          <internalNodes>
            0 -1 23 1987756251 -714158484 1870358484 426360303
            -550310742 -697827975 336396123 -1149553433</internalNodes>
          <leafValues>
            -2.7202519774436951e-01 4.8102307319641113e-01</leafValues></_>
        <_>
          <internalNodes>
            0 -1 73 -1048426944 -2046768791 -481816543 787990231
            -1441031936 -1415982590 -57443346 -1996666865</internalNodes>
          <leafValues>
            -5.2816206216812134e-01 2.6328253746032715e-01</leafValues></_>
        <_>
          <internalNodes>
            0 -1 100 -1863304052 855642155 -1475796547 -498971455
            -754968100 1992870664 2025347785 -1449807688</internalNodes>
          <leafValues>
            -3.9523810148239136e-01 3.9618974924087524e-01</leafValues></_>
        <_>
          <internalNodes>
            0 -1 28 -535494422 1606717802 76618784 -2134555280 824207787
            -737640319 149273014 1919545300</internalNodes>
          <leafValues>
            -6.4401048421859741e-01 2.3382298648357391e-01</leafValues></_>
        <_>
          <internalNodes>
            0 -1 111 -777886150 -54842185 -1426161767 -412780360
            -545318916 -1127940586 779877881 -105785826</internalNodes>
          <leafValues>
            -3.3097812533378601e-01 4.7325056791305542e-01</leafValues></_>
        <_>
          <internalNodes>
            0 -1 106 1916793241 -1619714240 787369845 -780944067
            -285935389 -999325742 -948439042 -1692556342</internalNodes>
          <leafValues>
            -2.8752276301383972e-01 5.7545596361160278e-01</leafValues></_></weakClassifiers></_>
    <!-- stage 16 -->
    <_>
      <maxWeakCount>8</maxWeakCount>
      <stageThreshold>-1.2282896041870117e+00</stageThreshold>
      <weakClassifiers>
        <_>
          <internalNodes>
            0 -1 33 -777797415 -538622330 2063964509 1968796379
            -700190303 -1265811222 -117394485 -69485921</internalNodes>
          <leafValues>
            -4.7031354904174805e-01 3.4883719682693481e-01</leafValues></_>
        <_>
          <internalNodes>
            0 -1 80 55270286 1339469956 -457809886 548864139 2091066372
            2094582145 1683028819 681869921</internalNodes>
          <leafValues>
            -6.4081192016601562e-01 1.7675928771495819e-01</leafValues></_>
        <_>
          <internalNodes>
            0 -1 39 1880002296 -545768029 373459398 1404228417
            -645881640 -645529600 1758085821 -414444400</internalNodes>
          <leafValues>
            -3.5088428854942322e-01 3.4949022531509399e-01</leafValues></_>
        <_>
          <internalNodes>
            0 -1 55 323308964 126513605 35164417 -422458287 1705313468
            1241718910 748986437 1947599557</internalNodes>
          <leafValues>
            -4.8099055886268616e-01 3.0913490056991577e-01</leafValues></_>
        <_>
          <internalNodes>
            0 -1 98 -1488969791 -2116035189 185814671 1319866561
            -795419988 -591165303 -343006501 -58663435</internalNodes>
          <leafValues>
            -3.6461374163627625e-01 3.8415300846099854e-01</leafValues></_>
        <_>
          <internalNodes>
            0 -1 34 1269119663 676224216 1214319687 160913901 1778915802
            -457734071 134283264 1592382590</internalNodes>
          <leafValues>
            -4.3140697479248047e-01 3.3022323250770569e-01</leafValues></_>
        <_>
          <internalNodes>
            0 -1 46 1953763311 1020358935 -922164419 -2078699511
            -601575373 754976137 -352177357 100829261</internalNodes>
          <leafValues>
            -4.5736026763916016e-01 3.2516589760780334e-01</leafValues></_>
        <_>
          <internalNodes>
            0 -1 101 -984611819 -1230841452 1342527393 -326572559
            -393414267 981664398 -110605799 -1023469888</internalNodes>
          <leafValues>
            -3.8837173581123352e-01 4.0069353580474854e-01</leafValues></_></weakClassifiers></_></stages>
  <features>
    <_>
      <rect>
        0 0 10 7</rect></_>
    <_>
      <rect>
        0 1 3 10</rect></_>
    <_>
      <rect>
        0 3 6 8</rect></_>
    <_>
      <rect>
        0 12 4 6</rect></_>
    <_>
      <rect>
        0 20 1 1</rect></_>
    <_>
      <rect>
        1 1 1 1</rect></_>
    <_>
      <rect>
        1 1 3 7</rect></_>
    <_>
      <rect>
        1 2 9 9</rect></_>
    <_>
      <rect>
        1 12 3 5</rect></_>
    <_>
      <rect>
        1 25 2 2</rect></_>
    <_>
      <rect>
        1 26 1 1</rect></_>
    <_>
      <rect>
        2 2 9 7</rect></_>
    <_>
      <rect>
        2 6 1 1</rect></_>
    <_>
      <rect>
        2 9 4 7</rect></_>
    <_>
      <rect>
        3 2 4 6</rect></_>
    <_>
      <rect>
        3 2 9 8</rect></_>
    <_>
      <rect>
        3 4 1 1</rect></_>
    <_>
      <rect>
        3 4 3 3</rect></_>
    <_>
      <rect>
        3 17 8 5</rect></_>
    <_>
      <rect>
        4 1 9 10</rect></_>
    <_>
      <rect>
        4 5 9 9</rect></_>
    <_>
      <rect>
        4 8 2 4</rect></_>
    <_>
      <rect>
        4 9 3 4</rect></_>
    <_>
      <rect>
        5 9 1 1</rect></_>
    <_>
      <rect>
        5 12 8 6</rect></_>
    <_>
      <rect>
        6 0 6 6</rect></_>
    <_>
      <rect>
        6 0 8 6</rect></_>
    <_>
      <rect>
        6 3 3 7</rect></_>
    <_>
      <rect>
        6 15 6 5</rect></_>
    <_>
      <rect>
        6 20 1 1</rect></_>
    <_>
      <rect>
        7 4 6 7</rect></_>
    <_>
      <rect>
        7 9 1 1</rect></_>
    <_>
      <rect>
        7 16 1 1</rect></_>
    <_>
      <rect>
        7 18 1 1</rect></_>
    <_>
      <rect>
        7 19 3 3</rect></_>
    <_>
      <rect>
        8 7 1 1</rect></_>
    <_>
      <rect>
        8 7 2 4</rect></_>
    <_>
      <rect>
        8 7 7 6</rect></_>
    <_>
      <rect>
        8 9 7 6</rect></_>
    <_>
      <rect>
        8 17 1 1</rect></_>
    <_>
      <rect>
        8 19 1 1</rect></_>
    <_>
      <rect>
        8 19 2 3</rect></_>
    <_>
      <rect>
        8 22 1 1</rect></_>
    <_>
      <rect>
        9 0 3 4</rect></_>
    <_>
      <rect>
        9 3 6 9</rect></_>
    <_>
      <rect>
        9 4 1 1</rect></_>
    <_>
      <rect>
        10 0 2 4</rect></_>
    <_>
      <rect>
        10 17 5 5</rect></_>
    <_>
      <rect>
        10 27 1 1</rect></_>
    <_>
      <rect>
        11 0 2 3</rect></_>
    <_>
      <rect>
        11 0 4 3</rect></_>
    <_>
      <rect>
        11 1 5 8</rect></_>
    <_>
      <rect>
        11 4 4 4</rect></_>
    <_>
      <rect>
        11 8 6 8</rect></_>
    <_>
      <rect>
        11 10 1 1</rect></_>
    <_>
      <rect>
        11 19 2 2</rect></_>
    <_>
      <rect>
        12 10 2 6</rect></_>
    <_>
      <rect>
        12 11 3 6</rect></_>
    <_>
      <rect>
        12 15 3 4</rect></_>
    <_>
      <rect>
        12 16 3 3</rect></_>
    <_>
      <rect>
        12 18 1 1</rect></_>
    <_>
      <rect>
        13 0 1 1</rect></_>
    <_>
      <rect>
        13 0 2 4</rect></_>
    <_>
      <rect>
        13 0 3 4</rect></_>
    <_>
      <rect>
        13 2 3 6</rect></_>
    <_>
      <rect>
        13 10 3 3</rect></_>
    <_>
      <rect>
        13 15 3 2</rect></_>
    <_>
      <rect>
        13 20 4 4</rect></_>
    <_>
      <rect>
        14 4 3 4</rect></_>
    <_>
      <rect>
        14 9 2 4</rect></_>
    <_>
      <rect>
        14 14 1 1</rect></_>
    <_>
      <rect>
        14 19 4 4</rect></_>
    <_>
      <rect>
        14 25 1 1</rect></_>
    <_>
      <rect>
        15 8 1 2</rect></_>
    <_>
      <rect>
        15 11 1 1</rect></_>
    <_>
      <rect>
        15 13 1 1</rect></_>
    <_>
      <rect>
        15 14 1 1</rect></_>
    <_>
      <rect>
        15 15 1 1</rect></_>
    <_>
      <rect>
        15 15 3 3</rect></_>
    <_>
      <rect>
        15 20 1 1</rect></_>
    <_>
      <rect>
        15 21 2 2</rect></_>
    <_>
      <rect>
        16 4 2 2</rect></_>
    <_>
      <rect>
        16 7 1 1</rect></_>
    <_>
      <rect>
        16 13 1 1</rect></_>
    <_>
      <rect>
        16 16 1 1</rect></_>
    <_>
      <rect>
        16 20 1 1</rect></_>
    <_>
      <rect>
        16 25 1 1</rect></_>
    <_>
      <rect>
        17 0 5 9</rect></_>
    <_>
      <rect>
        17 8 1 1</rect></_>
    <_>
      <rect>
        17 10 1 2</rect></_>
    <_>
      <rect>
        17 13 1 1</rect></_>
    <_>
      <rect>
        18 9 1 1</rect></_>
    <_>
      <rect>
        19 17 1 1</rect></_>
    <_>
      <rect>
        19 20 1 1</rect></_>
    <_>
      <rect>
        19 29 1 1</rect></_>
    <_>
      <rect>
        20 9 1 1</rect></_>
    <_>
      <rect>
        20 23 1 1</rect></_>
    <_>
      <rect>
        21 2 3 7</rect></_>
    <_>
      <rect>
        21 4 2 3</rect></_>
    <_>
      <rect>
        21 17 1 1</rect></_>
    <_>
      <rect>
        21 19 2 3</rect></_>
    <_>
      <rect>
        21 19 3 3</rect></_>
    <_>
      <rect>
        21 27 1 1</rect></_>
    <_>
      <rect>
        22 0 3 9</rect></_>
    <_>
      <rect>
        22 11 1 1</rect></_>
    <_>
      <rect>
        23 1 1 1</rect></_>
    <_>
      <rect>
        23 9 1 1</rect></_>
    <_>
      <rect>
        23 17 1 1</rect></_>
    <_>
      <rect>
        23 21 1 1</rect></_>
    <_>
      <rect>
        23 29 1 1</rect></_>
    <_>
      <rect>
        24 7 1 1</rect></_>
    <_>
      <rect>
        24 26 2 2</rect></_>
    <_>
      <rect>
        25 8 1 1</rect></_>
    <_>
      <rect>
        25 9 1 1</rect></_>
    <_>
      <rect>
        26 16 1 1</rect></_>
    <_>
      <rect>
        26 16 2 4</rect></_>
    <_>
      <rect>
        27 10 1 1</rect></_>
    <_>
      <rect>
        28 26 1 1</rect></_>
    <_>
      <rect>
        29 2 1 1</rect></_>
    <_>
      <rect>
        29 14 1 1</rect></_></features></cascade>
</opencv_storage>
