<?xml version="1.0"?>
<opencv_storage>
<stage6>
  <maxWeakCount>8</maxWeakCount>
  <stageThreshold>-1.0081790685653687e+00</stageThreshold>
  <weakClassifiers>
    <_>
      <internalNodes>
        0 -1 13245 -1877417828 -784072574 151524560 1393758417
        -668948352 -930611136 -1710978822 -6572885</internalNodes>
      <leafValues>
        -5.4606741666793823e-01 2.7741935849189758e-01</leafValues></_>
    <_>
      <internalNodes>
        0 -1 6947 -619180104 -1221078756 -1229881686 -418006370
        -1314020929 42667475 3108782 -184178472</internalNodes>
      <leafValues>
        -6.1079180240631104e-01 2.5085613131523132e-01</leafValues></_>
    <_>
      <internalNodes>
        0 -1 25275 -688255414 -590401926 587135615 -127959045
        -2038582868 -1862997411 -1084768278 -1418039633</internalNodes>
      <leafValues>
        -3.2826671004295349e-01 5.2952486276626587e-01</leafValues></_>
    <_>
      <internalNodes>
        0 -1 1750 1613012592 -197421549 1870080986 -1153472351
        -621746288 -1636368834 255719418 -1211142742</internalNodes>
      <leafValues>
        -3.3044585585594177e-01 5.1253467798233032e-01</leafValues></_>
    <_>
      <internalNodes>
        0 -1 15454 1029017498 -468173544 -1642295102 1695618055
        -1099955664 908204049 -1139752962 358555821</internalNodes>
      <leafValues>
        -4.7807806730270386e-01 3.9721095561981201e-01</leafValues></_>
    <_>
      <internalNodes>
        0 -1 3586 -452921412 -550218347 -581930594 -656601072 -228876454
        2022877210 -658465172 598661533</internalNodes>
      <leafValues>
        -5.4946476221084595e-01 3.3363601565361023e-01</leafValues></_>
    <_>
      <internalNodes>
        0 -1 26818 -386803014 1509685501 1633582847 -585712207
        -563151444 -587931916 -751505717 -1828154405</internalNodes>
      <leafValues>
        -3.3258268237113953e-01 5.8590114116668701e-01</leafValues></_>
    <_>
      <internalNodes>
        0 -1 24741 1351916176 -220397488 1091850345 1376258189
        -1723431840 -1341648751 -1308378454 -1952779672</internalNodes>
      <leafValues>
        -3.9290553331375122e-01 4.9544465541839600e-01</leafValues></_></weakClassifiers></stage6>
</opencv_storage>
