<?xml version="1.0"?>
<opencv_storage>
<stage4>
  <maxWeakCount>6</maxWeakCount>
  <stageThreshold>-1.0463614463806152e+00</stageThreshold>
  <weakClassifiers>
    <_>
      <internalNodes>
        0 -1 23455 -613071139 -608232487 2147254271 1609694207
        -1167028232 -1358041 -632908293 -1147492725</internalNodes>
      <leafValues>
        -5.0128537416458130e-01 7.3770493268966675e-01</leafValues></_>
    <_>
      <internalNodes>
        0 -1 9460 8651790 1816118045 -168267361 -72709102 -987189435
        -51433296 -660542597 -1443190259</internalNodes>
      <leafValues>
        -6.1962789297103882e-01 3.5917869210243225e-01</leafValues></_>
    <_>
      <internalNodes>
        0 -1 3870 -799913736 -195166016 536889369 1574001449 -1878994816
        -1660418044 302688906 453126154</internalNodes>
      <leafValues>
        -4.8705935478210449e-01 4.3415245413780212e-01</leafValues></_>
    <_>
      <internalNodes>
        0 -1 11373 -1800785724 -732026258 989331323 1583217405
        -1485593366 -701071535 1014936826 -1419891363</internalNodes>
      <leafValues>
        -4.1497728228569031e-01 5.3276014328002930e-01</leafValues></_>
    <_>
      <internalNodes>
        0 -1 25870 -100532136 1436356742 1150169 520896541 537436312
        -536346456 807440554 977941128</internalNodes>
      <leafValues>
        -5.0685751438140869e-01 4.6468991041183472e-01</leafValues></_>
    <_>
      <internalNodes>
        0 -1 13638 -1603515692 -558973316 1676064346 2034367217
        -59984160 -698419341 -1132512001 -1689369330</internalNodes>
      <leafValues>
        -3.8550317287445068e-01 5.8524286746978760e-01</leafValues></_></weakClassifiers></stage4>
</opencv_storage>
