<?xml version="1.0"?>
<opencv_storage>
<stage5>
  <maxWeakCount>6</maxWeakCount>
  <stageThreshold>-7.2358256578445435e-01</stageThreshold>
  <weakClassifiers>
    <_>
      <internalNodes>
        0 -1 4137 769406271 727736246 -39994433 918296872 -10993731
        -23106757 -373620737 -1463810004</internalNodes>
      <leafValues>
        -6.5481352806091309e-01 2.3956723511219025e-01</leafValues></_>
    <_>
      <internalNodes>
        0 -1 24778 72684917 1037311133 -187319491 -50061643 1500790365
        -338839115 1572661101 145235296</internalNodes>
      <leafValues>
        -6.5412938594818115e-01 3.1381502747535706e-01</leafValues></_>
    <_>
      <internalNodes>
        0 -1 17965 789325376 1225595767 396148693 -1632338982 1505642135
        -19384259 -114783233 -1376314500</internalNodes>
      <leafValues>
        -7.2940689325332642e-01 2.9466763138771057e-01</leafValues></_>
    <_>
      <internalNodes>
        0 -1 129 76555453 -1149534662 -247629441 1853673282 -582990989
        -1144553025 -796388814 -1368387468</internalNodes>
      <leafValues>
        -5.6326806545257568e-01 4.1414004564285278e-01</leafValues></_>
    <_>
      <internalNodes>
        0 -1 21498 894721821 1074358634 -1664074052 -1126126877
        1791441317 -340775156 -220157427 -662425943</internalNodes>
      <leafValues>
        -4.7163781523704529e-01 4.9363324046134949e-01</leafValues></_>
    <_>
      <internalNodes>
        0 -1 9669 471598909 -1496839874 -574432781 -435536177 1549041523
        -286754591 -1475415361 -1639826932</internalNodes>
      <leafValues>
        -4.8738682270050049e-01 4.9078342318534851e-01</leafValues></_></weakClassifiers></stage5>
</opencv_storage>
