<?xml version="1.0"?>
<opencv_storage>
<stage7>
  <maxWeakCount>8</maxWeakCount>
  <stageThreshold>-1.3024610280990601e+00</stageThreshold>
  <weakClassifiers>
    <_>
      <internalNodes>
        0 -1 17419 -788137989 -78081758 -787382016 -577792864 1887687360
        1082737025 1672206123 -471885421</internalNodes>
      <leafValues>
        -5.8542138338088989e-01 3.5403725504875183e-01</leafValues></_>
    <_>
      <internalNodes>
        0 -1 20400 -2077430040 8508139 11812878 -89612156 -469567216
        -1271299966 -1456868496 -102045480</internalNodes>
      <leafValues>
        -5.2126729488372803e-01 3.8957732915878296e-01</leafValues></_>
    <_>
      <internalNodes>
        0 -1 21250 -738494206 -1072691164 -1038990336 -1433926544
        675786752 -1836651999 -489825984 -68712304</internalNodes>
      <leafValues>
        -5.2974826097488403e-01 3.7690207362174988e-01</leafValues></_>
    <_>
      <internalNodes>
        0 -1 19494 -223738400 -1062719296 1922168400 -622951616
        -1507536792 -2108669935 -336986192 -67507504</internalNodes>
      <leafValues>
        -4.5878359675407410e-01 4.4391933083534241e-01</leafValues></_>
    <_>
      <internalNodes>
        0 -1 5321 -816609802 -103294720 -587136124 -6310835 1981297788
        -1488936312 587268637 1433604865</internalNodes>
      <leafValues>
        -4.2604410648345947e-01 4.9860888719558716e-01</leafValues></_>
    <_>
      <internalNodes>
        0 -1 1938 -275590230 767988640 -2074278649 -443858944
        -1996125285 17432608 118476875 60539272</internalNodes>
      <leafValues>
        -5.6651717424392700e-01 3.7897068262100220e-01</leafValues></_>
    <_>
      <internalNodes>
        0 -1 24207 -1575315824 -1965638044 712701012 -176574999
        -1208494240 -1212157006 -1229263718 -5343429</internalNodes>
      <leafValues>
        -4.0450394153594971e-01 5.6860524415969849e-01</leafValues></_>
    <_>
      <internalNodes>
        0 -1 15707 -968277333 1762889753 -581840831 2115283410
        -1879005013 -494876007 1921024577 9326616</internalNodes>
      <leafValues>
        -5.9221762418746948e-01 3.7627720832824707e-01</leafValues></_></weakClassifiers></stage7>
</opencv_storage>
