<?xml version="1.0"?>
<opencv_storage>
<stage10>
  <maxWeakCount>8</maxWeakCount>
  <stageThreshold>-1.0126426219940186e+00</stageThreshold>
  <weakClassifiers>
    <_>
      <internalNodes>
        0 -1 3250 -182335288 -792625020 1364676915 -547516235
        -2012630912 461422786 982966463 -609271649</internalNodes>
      <leafValues>
        -5.3597652912139893e-01 2.9680365324020386e-01</leafValues></_>
    <_>
      <internalNodes>
        0 -1 9480 1777066820 1828845254 22073594 1027626419 -243268899
        1446367283 1485013221 -381695717</internalNodes>
      <leafValues>
        -6.1791175603866577e-01 2.2246895730495453e-01</leafValues></_>
    <_>
      <internalNodes>
        0 -1 26650 -273644536 -780314706 -320733529 -673456269
        -129380903 -127410320 -2043225089 -1146382421</internalNodes>
      <leafValues>
        -2.6812255382537842e-01 5.9217602014541626e-01</leafValues></_>
    <_>
      <internalNodes>
        0 -1 20412 -1520445033 1980989863 -788406068 331851068
        1797737414 -326154153 1343451206 1375024103</internalNodes>
      <leafValues>
        -4.7378847002983093e-01 3.4929913282394409e-01</leafValues></_>
    <_>
      <internalNodes>
        0 -1 23591 -548890952 -759918781 -1477543304 -206174426
        960493812 185065143 -1252597777 -81023590</internalNodes>
      <leafValues>
        -2.8596958518028259e-01 6.0276174545288086e-01</leafValues></_>
    <_>
      <internalNodes>
        0 -1 11725 -1123306108 -778065235 514816620 -1080308090
        930973249 -1054957575 712406202 -135294460</internalNodes>
      <leafValues>
        -3.6013320088386536e-01 4.9096086621284485e-01</leafValues></_>
    <_>
      <internalNodes>
        0 -1 26232 -686864224 -738197563 2075901305 1434005215 -35766624
        -1389625868 -1084425219 -1145417105</internalNodes>
      <leafValues>
        -3.1599637866020203e-01 5.6425154209136963e-01</leafValues></_>
    <_>
      <internalNodes>
        0 -1 18551 -593440288 -1672015398 270177250 -2065611740
        1893830724 1755021350 -1829872752 1481348092</internalNodes>
      <leafValues>
        -6.6170603036880493e-01 2.8906965255737305e-01</leafValues></_></weakClassifiers></stage10>
</opencv_storage>
