<?xml version="1.0"?>
<opencv_storage>
<stage12>
  <maxWeakCount>10</maxWeakCount>
  <stageThreshold>-1.3140815496444702e+00</stageThreshold>
  <weakClassifiers>
    <_>
      <internalNodes>
        0 -1 25035 -1306564120 -607190704 1032556639 358213005
        -1553035646 -259648886 -804860213 -1952515110</internalNodes>
      <leafValues>
        -5.3560370206832886e-01 1.8110236525535583e-01</leafValues></_>
    <_>
      <internalNodes>
        0 -1 18364 -1087745178 1684538826 1033929952 634906714 421455680
        -2137814861 -1513015467 -1435424945</internalNodes>
      <leafValues>
        -6.8095749616622925e-01 1.6628473997116089e-01</leafValues></_>
    <_>
      <internalNodes>
        0 -1 1776 314780025 1885094231 -769414476 1046320520 857889593
        -323948157 -870637134 375665252</internalNodes>
      <leafValues>
        -5.4775387048721313e-01 2.2033466398715973e-01</leafValues></_>
    <_>
      <internalNodes>
        0 -1 6159 -749413232 -1047179246 -662037064 58760018 1364234412
        -1282889711 961342887 971309295</internalNodes>
      <leafValues>
        -4.3798398971557617e-01 3.1781965494155884e-01</leafValues></_>
    <_>
      <internalNodes>
        0 -1 19659 1133597118 872489215 1779009794 -1177436079 88959500
        1188722080 -97879393 -2144148761</internalNodes>
      <leafValues>
        -4.1848397254943848e-01 3.4611120820045471e-01</leafValues></_>
    <_>
      <internalNodes>
        0 -1 20400 1285787844 2089992385 -2046689250 -255242198
        1930473628 -1304362718 304837526 -880309589</internalNodes>
      <leafValues>
        -3.8126567006111145e-01 3.8785433769226074e-01</leafValues></_>
    <_>
      <internalNodes>
        0 -1 12576 -1591974668 281956626 394641690 701072887 -150746365
        -779497154 1988382937 -2027827815</internalNodes>
      <leafValues>
        -4.7921359539031982e-01 3.3075845241546631e-01</leafValues></_>
    <_>
      <internalNodes>
        0 -1 23919 -144303040 -687871027 -616583186 -415424651
        -646515136 893787634 -2013398193 -358087206</internalNodes>
      <leafValues>
        -3.6674094200134277e-01 4.2821413278579712e-01</leafValues></_>
    <_>
      <internalNodes>
        0 -1 1430 -653649706 -679624800 788520566 -579093259 -168483344
        -1777295811 2129917942 -1723083779</internalNodes>
      <leafValues>
        -3.7754502892494202e-01 4.5134836435317993e-01</leafValues></_>
    <_>
      <internalNodes>
        0 -1 24341 939245455 -1101644547 -819986455 -835067981
        -338411784 938967035 -109199364 -2123067955</internalNodes>
      <leafValues>
        -3.0529779195785522e-01 5.1746362447738647e-01</leafValues></_></weakClassifiers></stage12>
</opencv_storage>
