<?xml version="1.0"?>
<opencv_storage>
<stage13>
  <maxWeakCount>8</maxWeakCount>
  <stageThreshold>-9.4471848011016846e-01</stageThreshold>
  <weakClassifiers>
    <_>
      <internalNodes>
        0 -1 25635 -1861889060 -643510119 352367245 1538237171
        -435424607 -1534586736 -1493066597 -1435524433</internalNodes>
      <leafValues>
        -5.2121210098266602e-01 1.8333333730697632e-01</leafValues></_>
    <_>
      <internalNodes>
        0 -1 13388 -1523290459 -1509870953 -469748979 -384547837
        570450759 85985443 -1415326768 68239944</internalNodes>
      <leafValues>
        -5.7857686281204224e-01 1.9028307497501373e-01</leafValues></_>
    <_>
      <internalNodes>
        0 -1 20830 1753817634 715456468 1658575779 1853936338 163711809
        1734008898 554258850 70670400</internalNodes>
      <leafValues>
        -8.5065901279449463e-01 1.3496486842632294e-01</leafValues></_>
    <_>
      <internalNodes>
        0 -1 16233 -190955342 -1585268717 -1290727766 -505322472
        1083947712 -383473046 2001885412 1971148573</internalNodes>
      <leafValues>
        -6.0857427120208740e-01 2.1279300749301910e-01</leafValues></_>
    <_>
      <internalNodes>
        0 -1 7103 839068952 1514828115 -1072627452 1057310785 2015957604
        939680280 97939855 1804601408</internalNodes>
      <leafValues>
        -5.7545828819274902e-01 2.6374065876007080e-01</leafValues></_>
    <_>
      <internalNodes>
        0 -1 12565 821576400 -258309503 1258640156 -455108198
        -1996439422 1403527328 2093085102 -1349694682</internalNodes>
      <leafValues>
        -3.9131322503089905e-01 3.9132428169250488e-01</leafValues></_>
    <_>
      <internalNodes>
        0 -1 25686 -211259688 -185160489 -1640220675 2039889272
        -311451765 519667280 -1116429846 -1074800658</internalNodes>
      <leafValues>
        -2.6293638348579407e-01 5.9251379966735840e-01</leafValues></_>
    <_>
      <internalNodes>
        0 -1 13163 144572658 642351370 -1727667134 -1647092479 24734449
        -1031034341 847404439 -174969278</internalNodes>
      <leafValues>
        -4.5421653985977173e-01 3.6576980352401733e-01</leafValues></_></weakClassifiers></stage13>
</opencv_storage>
