<?xml version="1.0"?>
<opencv_storage>
<stage0>
  <maxWeakCount>5</maxWeakCount>
  <stageThreshold>-1.4631243944168091e+00</stageThreshold>
  <weakClassifiers>
    <_>
      <internalNodes>
        0 -1 11088 -545062982 -8326833 -205473028 -2671635 -1954153553
        -2652017 -105260625 -266337</internalNodes>
      <leafValues>
        -7.5777411460876465e-01 5.6401383876800537e-01</leafValues></_>
    <_>
      <internalNodes>
        0 -1 12740 -70195274 -6991211 994905640 -204672936 -880681636
        -205217553 -1082070328 -4875872</internalNodes>
      <leafValues>
        -6.6846495866775513e-01 4.3246465921401978e-01</leafValues></_>
    <_>
      <internalNodes>
        0 -1 20950 -121502076 -895242582 1089368618 -2141229200
        -1216399543 -1078503566 -209717318 -1157649157</internalNodes>
      <leafValues>
        -5.0760495662689209e-01 6.0505956411361694e-01</leafValues></_>
    <_>
      <internalNodes>
        0 -1 19758 -366334264 -656397078 2129440290 -522621302
        -1485146606 422540789 -1761761720 -85282821</internalNodes>
      <leafValues>
        -4.4301581382751465e-01 6.3931912183761597e-01</leafValues></_>
    <_>
      <internalNodes>
        0 -1 21415 -68899166 -224428251 -488154494 -788900373
        -1227008448 812269557 -305686262 -17956357</internalNodes>
      <leafValues>
        -4.0805250406265259e-01 7.0927906036376953e-01</leafValues></_></weakClassifiers></stage0>
</opencv_storage>
