<?xml version="1.0"?>
<opencv_storage>
<stage14>
  <maxWeakCount>8</maxWeakCount>
  <stageThreshold>-1.2546746730804443e+00</stageThreshold>
  <weakClassifiers>
    <_>
      <internalNodes>
        0 -1 27080 -749448983 1373622308 486609206 -275707645
        -1031687020 -332920656 2057940411 -81579109</internalNodes>
      <leafValues>
        -5.2812498807907104e-01 1.4615385234355927e-01</leafValues></_>
    <_>
      <internalNodes>
        0 -1 17370 -1818570508 1065490920 -2129800950 216825800
        839041568 2018445571 155488550 76157013</internalNodes>
      <leafValues>
        -7.5051915645599365e-01 1.2540915608406067e-01</leafValues></_>
    <_>
      <internalNodes>
        0 -1 17843 1145373198 -1715787383 1304679827 349701905 551737918
        1649012760 713224615 708718114</internalNodes>
      <leafValues>
        -6.1338239908218384e-01 1.7544271051883698e-01</leafValues></_>
    <_>
      <internalNodes>
        0 -1 20515 -314802650 -995920542 2105503015 1418031011
        -278333551 494907349 2101073139 -70296993</internalNodes>
      <leafValues>
        -3.1692713499069214e-01 4.1055166721343994e-01</leafValues></_>
    <_>
      <internalNodes>
        0 -1 17640 1582163688 -741234439 661617349 -170054312 1605875681
        -1753865356 -671256750 -19143203</internalNodes>
      <leafValues>
        -2.4691581726074219e-01 5.5286788940429688e-01</leafValues></_>
    <_>
      <internalNodes>
        0 -1 26658 585494141 1860238131 -67585 -1083251487 1056956398
        -16828491 -318780359 -1958544063</internalNodes>
      <leafValues>
        -3.5380455851554871e-01 4.0744844079017639e-01</leafValues></_>
    <_>
      <internalNodes>
        0 -1 15654 -1626425189 1560029903 -1360187038 825547481
        -739322156 859109244 854914554 -1194807347</internalNodes>
      <leafValues>
        -3.1391379237174988e-01 4.8368397355079651e-01</leafValues></_>
    <_>
      <internalNodes>
        0 -1 5165 1658613885 -1227322723 -2130672049 1850820630
        460221229 1142423747 1730183700 136395525</internalNodes>
      <leafValues>
        -5.9343802928924561e-01 2.6385843753814697e-01</leafValues></_></weakClassifiers></stage14>
</opencv_storage>
