<?xml version="1.0"?>
<opencv_storage>
<stage16>
  <maxWeakCount>8</maxWeakCount>
  <stageThreshold>-1.2282896041870117e+00</stageThreshold>
  <weakClassifiers>
    <_>
      <internalNodes>
        0 -1 11805 -777797415 -538622330 2063964509 1968796379
        -700190303 -1265811222 -117394485 -69485921</internalNodes>
      <leafValues>
        -4.7031354904174805e-01 3.4883719682693481e-01</leafValues></_>
    <_>
      <internalNodes>
        0 -1 20539 55270286 1339469956 -457809886 548864139 2091066372
        2094582145 1683028819 681869921</internalNodes>
      <leafValues>
        -6.4081192016601562e-01 1.7675928771495819e-01</leafValues></_>
    <_>
      <internalNodes>
        0 -1 13085 1880002296 -545768029 373459398 1404228417 -645881640
        -645529600 1758085821 -414444400</internalNodes>
      <leafValues>
        -3.5088428854942322e-01 3.4949022531509399e-01</leafValues></_>
    <_>
      <internalNodes>
        0 -1 16653 323308964 126513605 35164417 -422458287 1705313468
        1241718910 748986437 1947599557</internalNodes>
      <leafValues>
        -4.8099055886268616e-01 3.0913490056991577e-01</leafValues></_>
    <_>
      <internalNodes>
        0 -1 24383 -1488969791 -2116035189 185814671 1319866561
        -795419988 -591165303 -343006501 -58663435</internalNodes>
      <leafValues>
        -3.6461374163627625e-01 3.8415300846099854e-01</leafValues></_>
    <_>
      <internalNodes>
        0 -1 11847 1269119663 676224216 1214319687 160913901 1778915802
        -457734071 134283264 1592382590</internalNodes>
      <leafValues>
        -4.3140697479248047e-01 3.3022323250770569e-01</leafValues></_>
    <_>
      <internalNodes>
        0 -1 14533 1953763311 1020358935 -922164419 -2078699511
        -601575373 754976137 -352177357 100829261</internalNodes>
      <leafValues>
        -4.5736026763916016e-01 3.2516589760780334e-01</leafValues></_>
    <_>
      <internalNodes>
        0 -1 24682 -984611819 -1230841452 1342527393 -326572559
        -393414267 981664398 -110605799 -1023469888</internalNodes>
      <leafValues>
        -3.8837173581123352e-01 4.0069353580474854e-01</leafValues></_></weakClassifiers></stage16>
</opencv_storage>
