<?xml version="1.0"?>
<opencv_storage>
<stage1>
  <maxWeakCount>6</maxWeakCount>
  <stageThreshold>-1.2655327320098877e+00</stageThreshold>
  <weakClassifiers>
    <_>
      <internalNodes>
        0 -1 15792 1359893980 -673346087 -103266307 -37505 -221449249
        -72818483 -1683252241 -4200289</internalNodes>
      <leafValues>
        -7.0439189672470093e-01 3.7987011671066284e-01</leafValues></_>
    <_>
      <internalNodes>
        0 -1 27055 -780656446 -78387212 -564118543 -645703427 -659105112
        -962513289 -1170819682 -1228227176</internalNodes>
      <leafValues>
        -4.3032884597778320e-01 5.7142645120620728e-01</leafValues></_>
    <_>
      <internalNodes>
        0 -1 6614 -1114328328 -638316464 -921624927 1608079752
        -215695362 -165013077 143359922 -1108865796</internalNodes>
      <leafValues>
        -6.2707221508026123e-01 3.8764369487762451e-01</leafValues></_>
    <_>
      <internalNodes>
        0 -1 25737 853541504 -195415996 527332576 -713449220 -1552780628
        -706184410 1463148286 -1142193457</internalNodes>
      <leafValues>
        -4.0947574377059937e-01 5.8726030588150024e-01</leafValues></_>
    <_>
      <internalNodes>
        0 -1 17833 48171631 928875079 1430598029 386644651 1904933617
        -79069045 -1144442178 671755583</internalNodes>
      <leafValues>
        -5.6937247514724731e-01 4.1322270035743713e-01</leafValues></_>
    <_>
      <internalNodes>
        0 -1 1043 17173808 387131481 1503728541 -136703600 2138065087
        -331742255 1014655671 -1094631424</internalNodes>
      <leafValues>
        -5.2450019121170044e-01 4.7837233543395996e-01</leafValues></_></weakClassifiers></stage1>
</opencv_storage>
