<?xml version="1.0"?>
<opencv_storage>
<stage11>
  <maxWeakCount>8</maxWeakCount>
  <stageThreshold>-9.9421918392181396e-01</stageThreshold>
  <weakClassifiers>
    <_>
      <internalNodes>
        0 -1 19065 1132325634 -1022115513 -1596407050 -647522857 8448067
        -1379236757 -133474114 1487606271</internalNodes>
      <leafValues>
        -7.0663267374038696e-01 -4.5275591313838959e-02</leafValues></_>
    <_>
      <internalNodes>
        0 -1 19306 -1237123888 -971099072 20556940 -1023597911 839716941
        -2101835222 -922752380 -1930593081</internalNodes>
      <leafValues>
        -5.6782758235931396e-01 1.8717734515666962e-01</leafValues></_>
    <_>
      <internalNodes>
        0 -1 7181 -948871171 1600272882 1876930403 -1350703510
        -1879670956 1584758099 -168856195 -1209061036</internalNodes>
      <leafValues>
        -3.3395710587501526e-01 3.9911773800849915e-01</leafValues></_>
    <_>
      <internalNodes>
        0 -1 21815 -1270066518 -1946277718 1790573498 658213409 -246238
        -2023755939 -1619560526 -201394204</internalNodes>
      <leafValues>
        -3.6259838938713074e-01 3.9228719472885132e-01</leafValues></_>
    <_>
      <internalNodes>
        0 -1 2686 218639472 2073297209 -1190076130 197641738 134225401
        -911734752 999905589 84438276</internalNodes>
      <leafValues>
        -6.3179802894592285e-01 2.3825064301490784e-01</leafValues></_>
    <_>
      <internalNodes>
        0 -1 96 1096258924 -130006151 -2146363059 -713018990 1767338458
        939884577 1373221159 619292875</internalNodes>
      <leafValues>
        -5.5434763431549072e-01 2.6650294661521912e-01</leafValues></_>
    <_>
      <internalNodes>
        0 -1 3233 -242381371 1533964086 2134884335 1381756302 1064713887
        -1090552066 880513788 -1744838904</internalNodes>
      <leafValues>
        -3.4045282006263733e-01 4.9138158559799194e-01</leafValues></_>
    <_>
      <internalNodes>
        0 -1 17592 1905299942 135356624 1551903424 1113934216 444782809
        -756610543 -1326682225 1916852455</internalNodes>
      <leafValues>
        -5.6042098999023438e-01 2.8400388360023499e-01</leafValues></_></weakClassifiers></stage11>
</opencv_storage>
