<?xml version="1.0"?>
<opencv_storage>
<stage7>
  <maxWeakCount>17</maxWeakCount>
  <stageThreshold>-1.8625396490097046e+00</stageThreshold>
  <weakClassifiers>
    <_>
      <internalNodes>
        0 -1 445639 -4202499 -150481585 -788277025 -134250501 -993263633
        -804787161 -655361061 -1073750017</internalNodes>
      <leafValues>
        -5.8819174766540527e-01 1.9746531546115875e-01</leafValues></_>
    <_>
      <internalNodes>
        0 -1 319011 -1074045071 -32769 -151322627 -1081345 -1140920865
        -3 -1141178369 1068113405</internalNodes>
      <leafValues>
        -3.6853885650634766e-01 3.5493171215057373e-01</leafValues></_>
    <_>
      <internalNodes>
        0 -1 6327 -144805898 -33622026 -699996498 -294719890 1515661143
        2085890611 1708616317 2004320119</internalNodes>
      <leafValues>
        -4.2989617586135864e-01 2.4230648577213287e-01</leafValues></_>
    <_>
      <internalNodes>
        0 -1 131408 -753455859 -36456897 -69402689 -274125475 -70598657
        -269110355 -218185793 143470527</internalNodes>
      <leafValues>
        -3.0859938263893127e-01 3.1414064764976501e-01</leafValues></_>
    <_>
      <internalNodes>
        0 -1 333264 -1145470987 -429234692 -1224738211 2138650301
        -1130598915 -1997738322 -1619035409 523767805</internalNodes>
      <leafValues>
        -2.4789077043533325e-01 3.7619671225547791e-01</leafValues></_>
    <_>
      <internalNodes>
        0 -1 352384 1002247761 -290455826 1610612720 -18946566 -16810412
        -69251273 -101189772 -50528336</internalNodes>
      <leafValues>
        -3.3383589982986450e-01 2.6303982734680176e-01</leafValues></_>
    <_>
      <internalNodes>
        0 -1 333356 -2115338393 -616679503 -1641021441 1600094207
        -1560545317 -554046609 -1427439813 1058163973</internalNodes>
      <leafValues>
        -2.8401523828506470e-01 3.0452555418014526e-01</leafValues></_>
    <_>
      <internalNodes>
        0 -1 249249 82720255 1610090101 872398847 -1074382084 937762765
        -1220190345 75455997 262674909</internalNodes>
      <leafValues>
        -2.8097090125083923e-01 2.9609265923500061e-01</leafValues></_>
    <_>
      <internalNodes>
        0 -1 176000 -3186705 -578854953 -1355120663 2071943343
        -218308626 -36833875 -33898561 -1082982657</internalNodes>
      <leafValues>
        -2.0287486910820007e-01 4.5315638184547424e-01</leafValues></_>
    <_>
      <internalNodes>
        0 -1 9977 -911741969 1638484975 -89136402 -1873424938 1466389871
        1082130287 -681383946 1979184127</internalNodes>
      <leafValues>
        -3.3568993210792542e-01 2.5289794802665710e-01</leafValues></_>
    <_>
      <internalNodes>
        0 -1 5189 -757598261 1543470845 1052745359 1115680767 -71598783
        -245383361 -201853066 -759170081</internalNodes>
      <leafValues>
        -2.0990660786628723e-01 4.4143879413604736e-01</leafValues></_>
    <_>
      <internalNodes>
        0 -1 345444 799868192 786775517 -121896973 -352406167 -21490096
        -22287388 -25827996 -84747788</internalNodes>
      <leafValues>
        -3.3682405948638916e-01 2.4974787235260010e-01</leafValues></_>
    <_>
      <internalNodes>
        0 -1 82616 -1112213517 -336732399 429813184 -447001873
        -1579451501 -835749963 2011395778 -1020968492</internalNodes>
      <leafValues>
        -2.8600940108299255e-01 3.0967807769775391e-01</leafValues></_>
    <_>
      <internalNodes>
        0 -1 358133 -219171432 919305145 995304412 499086203 -1734368372
        680291262 -1729122188 838808975</internalNodes>
      <leafValues>
        -3.6560261249542236e-01 2.2332730889320374e-01</leafValues></_>
    <_>
      <internalNodes>
        0 -1 229972 -1587675101 1986000627 212874842 545214699
        -1074012940 -1060619 1062895418 136212</internalNodes>
      <leafValues>
        -4.1194090247154236e-01 2.0843303203582764e-01</leafValues></_>
    <_>
      <internalNodes>
        0 -1 267965 1242310848 582222903 -271818753 276368980 -287564304
        -1076086299 -303139330 -1414001190</internalNodes>
      <leafValues>
        -4.0842655301094055e-01 2.0150524377822876e-01</leafValues></_>
    <_>
      <internalNodes>
        0 -1 8939 -303039026 -148156593 870308590 1928232871 -713296053
        1896183066 1342174173 1353708794</internalNodes>
      <leafValues>
        -2.8784641623497009e-01 2.9490575194358826e-01</leafValues></_></weakClassifiers></stage7>
</opencv_storage>
