<?xml version="1.0"?>
<opencv_storage>
<stage0>
  <maxWeakCount>10</maxWeakCount>
  <stageThreshold>-2.0724990367889404e+00</stageThreshold>
  <weakClassifiers>
    <_>
      <internalNodes>
        0 -1 14552 -2166068 -67142945 -5251073 -41473 -22021138
        -1296367437 -67372033 872100603</internalNodes>
      <leafValues>
        -7.5423002243041992e-01 4.4871386885643005e-01</leafValues></_>
    <_>
      <internalNodes>
        0 -1 244819 -5972744 -2261524 -637543458 -65 -1142292738
        -68550916 -1347159105 -1093</internalNodes>
      <leafValues>
        -4.8269891738891602e-01 5.6363642215728760e-01</leafValues></_>
    <_>
      <internalNodes>
        0 -1 14536 -675657841 -6345028 -1073741921 -177375385 -532545
        -817 -1082266641 1144483080</internalNodes>
      <leafValues>
        -3.6830770969390869e-01 5.2589136362075806e-01</leafValues></_>
    <_>
      <internalNodes>
        0 -1 4163 -420544513 -307451929 -1360073105 -402460988
        1432649591 1699114879 106240707 2001172067</internalNodes>
      <leafValues>
        -3.8694956898689270e-01 4.0181511640548706e-01</leafValues></_>
    <_>
      <internalNodes>
        0 -1 325796 939334125 -1212448769 -1092125889 -1078773761
        872231149 -570490881 1069300729 529008029</internalNodes>
      <leafValues>
        -3.8592621684074402e-01 3.6581289768218994e-01</leafValues></_>
    <_>
      <internalNodes>
        0 -1 333313 384842196 -58917407 -1648560649 1544305404
        -1092241748 -1216817201 -1091777096 -1667228428</internalNodes>
      <leafValues>
        -4.5377433300018311e-01 2.9712516069412231e-01</leafValues></_>
    <_>
      <internalNodes>
        0 -1 338768 788207487 -1363509317 -20447242 -289473281
        -1107878832 -290201603 -1090601102 -50548492</internalNodes>
      <leafValues>
        -3.7037584185600281e-01 3.3330762386322021e-01</leafValues></_>
    <_>
      <internalNodes>
        0 -1 447840 -119539825 -966830117 -9438297 1920851963 -134239393
        175863803 2130682212 1409284031</internalNodes>
      <leafValues>
        -3.0464679002761841e-01 3.8616454601287842e-01</leafValues></_>
    <_>
      <internalNodes>
        0 -1 10667 -4198545 -1415596057 1741680622 -797245446 -218106786
        1350500211 -2057 1957820406</internalNodes>
      <leafValues>
        -4.6730875968933105e-01 2.3689492046833038e-01</leafValues></_>
    <_>
      <internalNodes>
        0 -1 437357 1450961189 -715918500 -1168783342 1999961615
        -100871381 1617162651 938125583 16235151</internalNodes>
      <leafValues>
        -3.2959607243537903e-01 3.5117250680923462e-01</leafValues></_></weakClassifiers></stage0>
</opencv_storage>
