<?xml version="1.0"?>
<opencv_storage>
<stage12>
  <maxWeakCount>18</maxWeakCount>
  <stageThreshold>-1.4685096740722656e+00</stageThreshold>
  <weakClassifiers>
    <_>
      <internalNodes>
        0 -1 199233 -170435777 -33718787 -539099297 -262369 -108006405
        -4292354 -74843137 -52495377</internalNodes>
      <leafValues>
        -4.9808701872825623e-01 2.6505404710769653e-01</leafValues></_>
    <_>
      <internalNodes>
        0 -1 318392 -1644725251 -2204673 -1747896361 2139042559
        -1718060545 -106955541 -1078575361 1059724749</internalNodes>
      <leafValues>
        -3.6993381381034851e-01 2.8683900833129883e-01</leafValues></_>
    <_>
      <internalNodes>
        0 -1 438776 -536871166 84908435 -712645110 835443039 -268699894
        1074129416 -693640286 1375730399</internalNodes>
      <leafValues>
        -3.5550618171691895e-01 2.7125072479248047e-01</leafValues></_>
    <_>
      <internalNodes>
        0 -1 254639 -1182541576 1977440543 -1861152640 -82499311
        1297213128 -50556312 -408885462 -81429841</internalNodes>
      <leafValues>
        -3.5310983657836914e-01 2.5811418890953064e-01</leafValues></_>
    <_>
      <internalNodes>
        0 -1 101 -958470586 1139126091 -183900873 -764509566 -678350211
        -1660182007 1987917461 2003271030</internalNodes>
      <leafValues>
        -3.9375385642051697e-01 2.5658565759658813e-01</leafValues></_>
    <_>
      <internalNodes>
        0 -1 341324 501043701 -83919781 -558564001 -113316391
        -1262957580 -38105220 -1350240257 -544596483</internalNodes>
      <leafValues>
        -2.2294615209102631e-01 4.0172797441482544e-01</leafValues></_>
    <_>
      <internalNodes>
        0 -1 229867 -576436246 2099982119 1056710456 1931942287
        -840443921 -270870658 1439689903 789189625</internalNodes>
      <leafValues>
        -2.5931391119956970e-01 3.3449432253837585e-01</leafValues></_>
    <_>
      <internalNodes>
        0 -1 406491 -537853953 1574896509 -305048710 310340983
        -1620195255 1287327780 -26674456 2114846011</internalNodes>
      <leafValues>
        -2.9446151852607727e-01 2.9001641273498535e-01</leafValues></_>
    <_>
      <internalNodes>
        0 -1 450064 2128536234 -1561359186 -1897216340 -1610161576
        -540024774 1187672941 -49356281 -10619458</internalNodes>
      <leafValues>
        -2.8117090463638306e-01 3.0216702818870544e-01</leafValues></_>
    <_>
      <internalNodes>
        0 -1 12014 -805568577 -139006542 1576977113 530534043
        -1130374273 1337440247 1400885364 -739518785</internalNodes>
      <leafValues>
        -1.7288793623447418e-01 4.7244367003440857e-01</leafValues></_>
    <_>
      <internalNodes>
        0 -1 156000 -1756168331 -581306757 -200912553 -1424493185
        516677375 -1492410341 1304558883 -1946613499</internalNodes>
      <leafValues>
        -3.0420061945915222e-01 2.9267179965972900e-01</leafValues></_>
    <_>
      <internalNodes>
        0 -1 198595 -1118740620 2125076724 -1593506594 1007173852
        990388528 -177167694 297949881 995910392</internalNodes>
      <leafValues>
        -3.6939328908920288e-01 2.3646172881126404e-01</leafValues></_>
    <_>
      <internalNodes>
        0 -1 451501 422768430 -263351109 1843199702 -2100125217 -7411104
        858119465 -2042749078 1968765390</internalNodes>
      <leafValues>
        -3.7199974060058594e-01 2.2753837704658508e-01</leafValues></_>
    <_>
      <internalNodes>
        0 -1 451239 2111039475 -390238787 -864620557 1088370651
        -1157629962 1740607263 -1143102143 -57954370</internalNodes>
      <leafValues>
        -2.4659161269664764e-01 3.7270444631576538e-01</leafValues></_>
    <_>
      <internalNodes>
        0 -1 360931 1425041088 1058538743 -738019245 1392665199
        -135895041 -1075193471 -556101228 167912226</internalNodes>
      <leafValues>
        -4.0653651952743530e-01 2.3538222908973694e-01</leafValues></_>
    <_>
      <internalNodes>
        0 -1 4475 -595854865 -642519591 -1745145985 -1565403157
        -144715961 -1300562251 486363127 -167006917</internalNodes>
      <leafValues>
        -2.2069486975669861e-01 4.4450795650482178e-01</leafValues></_>
    <_>
      <internalNodes>
        0 -1 345774 -1457832559 714005910 1356593108 -287516208
        -1106249380 -1162223586 -34408704 -18028300</internalNodes>
      <leafValues>
        -3.0067613720893860e-01 3.1018602848052979e-01</leafValues></_>
    <_>
      <internalNodes>
        0 -1 176440 -623554571 -1076928821 -1612316943 2030638063
        -538198273 -325083137 -750846468 1712872887</internalNodes>
      <leafValues>
        -2.8976449370384216e-01 3.1499832868576050e-01</leafValues></_></weakClassifiers></stage12>
</opencv_storage>
