<?xml version="1.0"?>
<opencv_storage>
<stage14>
  <maxWeakCount>15</maxWeakCount>
  <stageThreshold>-1.3758602142333984e+00</stageThreshold>
  <weakClassifiers>
    <_>
      <internalNodes>
        0 -1 447023 -213922311 -779908789 147585 -788332405 -1610424117
        -1065320448 -1056910656 -1239681593</internalNodes>
      <leafValues>
        -5.9545171260833740e-01 1.0425626486539841e-01</leafValues></_>
    <_>
      <internalNodes>
        0 -1 8695 -45234610 -909908722 1142001862 2084401695 1883726435
        1090635784 1510261475 1395128975</internalNodes>
      <leafValues>
        -4.1170018911361694e-01 2.8629118204116821e-01</leafValues></_>
    <_>
      <internalNodes>
        0 -1 347394 -1332936492 1895827507 -548020301 1433997528
        -1464225094 -230771411 -1844399174 -4571651</internalNodes>
      <leafValues>
        -2.9572668671607971e-01 4.0347996354103088e-01</leafValues></_>
    <_>
      <internalNodes>
        0 -1 264 -1979529285 -57818741 -1600966453 -16157558 -1173163537
        897713482 -432487681 1971664440</internalNodes>
      <leafValues>
        -3.3836117386817932e-01 3.5298827290534973e-01</leafValues></_>
    <_>
      <internalNodes>
        0 -1 285449 1623720976 1476003853 -1048354483 292754432
        -1025315856 -787398646 -1597306466 1866072280</internalNodes>
      <leafValues>
        -4.1654986143112183e-01 3.1371629238128662e-01</leafValues></_>
    <_>
      <internalNodes>
        0 -1 340747 973783764 -130385781 -1645870467 1425792699
        -1125083187 -1894064243 -1725998337 469441817</internalNodes>
      <leafValues>
        -3.4876835346221924e-01 3.7184345722198486e-01</leafValues></_>
    <_>
      <internalNodes>
        0 -1 379077 1393315908 1398477911 -729275864 -551269940
        -455888695 293613720 -1544472078 254805976</internalNodes>
      <leafValues>
        -4.5852202177047729e-01 2.9574453830718994e-01</leafValues></_>
    <_>
      <internalNodes>
        0 -1 323105 -2646788 -1649979578 1828653728 -617765567
        -1800956792 1550800601 359793394 -1415867157</internalNodes>
      <leafValues>
        -3.4077075123786926e-01 3.8392984867095947e-01</leafValues></_>
    <_>
      <internalNodes>
        0 -1 202321 -1519543471 -1648803647 285461255 -436131849
        -1864165301 -855493376 214941871 1030112597</internalNodes>
      <leafValues>
        -3.9375063776969910e-01 3.2455503940582275e-01</leafValues></_>
    <_>
      <internalNodes>
        0 -1 198976 -433969669 -751869684 800554999 2138210111
        -201375751 -48488961 1379126207 -1078327875</internalNodes>
      <leafValues>
        -2.0355662703514099e-01 6.1133450269699097e-01</leafValues></_>
    <_>
      <internalNodes>
        0 -1 449251 -185864670 -1824764865 212830528 -1872425051
        1441722121 1131925101 922209451 1349504927</internalNodes>
      <leafValues>
        -3.3633559942245483e-01 3.8416159152984619e-01</leafValues></_>
    <_>
      <internalNodes>
        0 -1 372364 465845404 -351767660 -1862270821 21839901 1472248552
        541605897 403353739 435968057</internalNodes>
      <leafValues>
        -4.1337889432907104e-01 3.1171727180480957e-01</leafValues></_>
    <_>
      <internalNodes>
        0 -1 38764 -630634961 -847537959 -794075013 1247541347
        -1428642259 -2051794040 -1280907673 -220609089</internalNodes>
      <leafValues>
        -3.0651411414146423e-01 4.4869810342788696e-01</leafValues></_>
    <_>
      <internalNodes>
        0 -1 431019 -610304595 -821804891 -1878720091 -385214266
        -1735220301 1504741400 25288949 1154646921</internalNodes>
      <leafValues>
        -3.5137927532196045e-01 3.6064991354942322e-01</leafValues></_>
    <_>
      <internalNodes>
        0 -1 447639 -1160314840 1095759882 -787886072 1384376520
        -2071678918 591561346 551846016 673362443</internalNodes>
      <leafValues>
        -4.6566641330718994e-01 2.8456953167915344e-01</leafValues></_></weakClassifiers></stage14>
</opencv_storage>
