<?xml version="1.0"?>
<opencv_storage>
<stage2>
  <maxWeakCount>14</maxWeakCount>
  <stageThreshold>-1.7220664024353027e+00</stageThreshold>
  <weakClassifiers>
    <_>
      <internalNodes>
        0 -1 545 -16842753 -2163745 -614610089 -8501 -2756641 -1048613
        -3703809 -32897</internalNodes>
      <leafValues>
        -6.1776876449584961e-01 3.6852243542671204e-01</leafValues></_>
    <_>
      <internalNodes>
        0 -1 225665 -740427560 -42017 -70814552 -2107427 -84743176
        -3483427 -72434758 -86085</internalNodes>
      <leafValues>
        -4.3759065866470337e-01 4.2031934857368469e-01</leafValues></_>
    <_>
      <internalNodes>
        0 -1 417437 -134745328 1722803895 -706882767 360181727 -9965827
        1233124775 -1793 11534331</internalNodes>
      <leafValues>
        -4.4716075062751770e-01 3.4456884860992432e-01</leafValues></_>
    <_>
      <internalNodes>
        0 -1 12307 1945907964 2078046206 939024191 -36670306 1878330495
        1065305590 2094931903 1004417999</internalNodes>
      <leafValues>
        -3.4174016118049622e-01 3.6229202151298523e-01</leafValues></_>
    <_>
      <internalNodes>
        0 -1 444999 -135529553 1169145711 -3182 -218105921 -10494116
        106905439 1744827776 1428158463</internalNodes>
      <leafValues>
        -3.2627254724502563e-01 3.7348982691764832e-01</leafValues></_>
    <_>
      <internalNodes>
        0 -1 294380 132996341 -671649793 -4562947 1071452139 -1347428355
        -1110471243 466067455 237505584</internalNodes>
      <leafValues>
        -4.1528198122978210e-01 2.5848835706710815e-01</leafValues></_>
    <_>
      <internalNodes>
        0 -1 354114 1061101567 35536892 -104921361 1998062197
        -1762396195 -24647 -1082268419 -558361099</internalNodes>
      <leafValues>
        -2.7064627408981323e-01 3.7547677755355835e-01</leafValues></_>
    <_>
      <internalNodes>
        0 -1 331255 -1359014347 -1895877665 -8881185 -293683236 -565492
        -807471243 -42212127 -19071500</internalNodes>
      <leafValues>
        -2.7056184411048889e-01 3.6494046449661255e-01</leafValues></_>
    <_>
      <internalNodes>
        0 -1 333526 1929199444 1584772527 2128107130 2084448775
        -134479940 -126334482 -1086326548 684328</internalNodes>
      <leafValues>
        -3.7919604778289795e-01 2.6110970973968506e-01</leafValues></_>
    <_>
      <internalNodes>
        0 -1 9476 -71503897 -282104081 -759188746 1088737270 1199128190
        21854739 -136972906 1190460799</internalNodes>
      <leafValues>
        -3.8943290710449219e-01 2.5296944379806519e-01</leafValues></_>
    <_>
      <internalNodes>
        0 -1 6216 -354687236 -1908491661 1310662550 581494634
        -1910078138 645233278 2002630483 1078255189</internalNodes>
      <leafValues>
        -5.9947669506072998e-01 1.4253963530063629e-01</leafValues></_>
    <_>
      <internalNodes>
        0 -1 318386 -1174651171 -1648419515 -3506709 796868477 467361757
        -16974851 -270729345 229379404</internalNodes>
      <leafValues>
        -4.6274381875991821e-01 2.1066272258758545e-01</leafValues></_>
    <_>
      <internalNodes>
        0 -1 324105 485444977 -1363216590 -625217548 -285933580
        -1157660829 -875562501 -94439755 -17244688</internalNodes>
      <leafValues>
        -3.1312814354896545e-01 3.1799587607383728e-01</leafValues></_>
    <_>
      <internalNodes>
        0 -1 284 -1427207516 -827820049 -728884015 -805518088 -273560041
        -1458485472 -410966521 1404130324</internalNodes>
      <leafValues>
        -4.8590049147605896e-01 2.0931220054626465e-01</leafValues></_></weakClassifiers></stage2>
</opencv_storage>
