<?xml version="1.0"?>
<opencv_storage>
<stage4>
  <maxWeakCount>16</maxWeakCount>
  <stageThreshold>-1.5709949731826782e+00</stageThreshold>
  <weakClassifiers>
    <_>
      <internalNodes>
        0 -1 310760 -1073774593 -32769 -33555457 -32769 -1074790401
        -20497 -1073742081 -4579363</internalNodes>
      <leafValues>
        -5.4601937532424927e-01 3.7469938397407532e-01</leafValues></_>
    <_>
      <internalNodes>
        0 -1 11753 -136937633 -622593 1845428223 -18055169 400503679
        2076014463 -1109410817 -365825</internalNodes>
      <leafValues>
        -3.5506907105445862e-01 4.3804574012756348e-01</leafValues></_>
    <_>
      <internalNodes>
        0 -1 333542 -537398187 1432339449 -593494579 1441754047
        -138936323 490666747 -102761234 31456447</internalNodes>
      <leafValues>
        -3.5331305861473083e-01 3.4544384479522705e-01</leafValues></_>
    <_>
      <internalNodes>
        0 -1 6274 -278073361 -806555651 -1905539478 1245769218
        1701083489 1304773999 388461494 1397192311</internalNodes>
      <leafValues>
        -4.1413375735282898e-01 2.6616379618644714e-01</leafValues></_>
    <_>
      <internalNodes>
        0 -1 333188 -1112965698 -201434627 519994813 464006895
        -1845723911 2113792511 497827261 489168252</internalNodes>
      <leafValues>
        -3.9615476131439209e-01 3.0087009072303772e-01</leafValues></_>
    <_>
      <internalNodes>
        0 -1 338889 -1909497525 -1427899480 -536971810 -352387084
        -604800172 -285212701 -17500812 -84345356</internalNodes>
      <leafValues>
        -3.8926553726196289e-01 2.6214450597763062e-01</leafValues></_>
    <_>
      <internalNodes>
        0 -1 449137 -7340277 66060283 -6315798 1918558974 -570438030
        1204805487 2012735203 1736441838</internalNodes>
      <leafValues>
        -3.5262373089790344e-01 3.0695503950119019e-01</leafValues></_>
    <_>
      <internalNodes>
        0 -1 249462 69558272 -42068353 -1076707649 2003056431 503086075
        -45297270 435937119 282112</internalNodes>
      <leafValues>
        -4.4255506992340088e-01 2.0289547741413116e-01</leafValues></_>
    <_>
      <internalNodes>
        0 -1 254212 2147409340 -606767393 -100678689 -1110476291
        838438283 1398220414 -951059509 1067119995</internalNodes>
      <leafValues>
        -2.6042062044143677e-01 3.5916465520858765e-01</leafValues></_>
    <_>
      <internalNodes>
        0 -1 229318 -145996324 -8637985 -1181992410 2069704319
        -1278653468 -2348611 -420463619 1060643803</internalNodes>
      <leafValues>
        -3.2525163888931274e-01 2.8118005394935608e-01</leafValues></_>
    <_>
      <internalNodes>
        0 -1 447862 -3149953 805302139 -318836953 1887436798 -536891585
        1165809527 834205606 1920465915</internalNodes>
      <leafValues>
        -3.0261999368667603e-01 3.1088420748710632e-01</leafValues></_>
    <_>
      <internalNodes>
        0 -1 333313 -1672446891 -29466671 -37898753 -591647756
        -1088381251 -1237380115 -1175138823 -1225253476</internalNodes>
      <leafValues>
        -3.4703937172889709e-01 2.6531448960304260e-01</leafValues></_>
    <_>
      <internalNodes>
        0 -1 11666 -276511058 -436832529 -827417489 742341118 1991991118
        113154826 1424668197 1448607443</internalNodes>
      <leafValues>
        -3.8906657695770264e-01 2.3362410068511963e-01</leafValues></_>
    <_>
      <internalNodes>
        0 -1 414913 -671396113 -74361365 -1265115521 1379139167
        2147447876 1851632247 1827651423 2004877311</internalNodes>
      <leafValues>
        -3.0379337072372437e-01 3.1331482529640198e-01</leafValues></_>
    <_>
      <internalNodes>
        0 -1 399840 644824883 1122735920 -1459688980 1484050174
        -1686389128 -269370369 532659068 450103508</internalNodes>
      <leafValues>
        -4.8821747303009033e-01 1.8115086853504181e-01</leafValues></_>
    <_>
      <internalNodes>
        0 -1 12789 1467973547 -876727565 2129080114 782724695 -472935501
        1191172860 -1241520859 1202451313</internalNodes>
      <leafValues>
        -3.7839239835739136e-01 2.4476481974124908e-01</leafValues></_></weakClassifiers></stage4>
</opencv_storage>
