<?xml version="1.0"?>
<opencv_storage>
<stage13>
  <maxWeakCount>18</maxWeakCount>
  <stageThreshold>-1.7436208724975586e+00</stageThreshold>
  <weakClassifiers>
    <_>
      <internalNodes>
        0 -1 51584 -1049601 -19477 -285111887 -69213233 -7345398
        -380270302 -172496909 -1089</internalNodes>
      <leafValues>
        -4.6472081542015076e-01 4.2738589644432068e-01</leafValues></_>
    <_>
      <internalNodes>
        0 -1 257 -1475416580 -272371234 -1257120387 -813756931 601545197
        -4152088 -1517953804 1072108624</internalNodes>
      <leafValues>
        -4.3977668881416321e-01 2.6076638698577881e-01</leafValues></_>
    <_>
      <internalNodes>
        0 -1 26411 1935161140 385619318 1575508412 -1078196818 939590527
        2080197275 -72280387 1845246121</internalNodes>
      <leafValues>
        -4.4796898961067200e-01 2.3730279505252838e-01</leafValues></_>
    <_>
      <internalNodes>
        0 -1 310508 -1234674439 1938889199 31659519 1059029531
        -1712655621 -153147601 978131327 235539789</internalNodes>
      <leafValues>
        -4.1407260298728943e-01 2.4222141504287720e-01</leafValues></_>
    <_>
      <internalNodes>
        0 -1 81668 1466998928 -217012206 1296241461 -636139177
        1872599909 -88526613 -933873082 -1695600464</internalNodes>
      <leafValues>
        -4.3826645612716675e-01 2.2251760959625244e-01</leafValues></_>
    <_>
      <internalNodes>
        0 -1 444828 -1439174880 220205436 -754970607 276110611
        -659567043 1121239052 269022096 347588011</internalNodes>
      <leafValues>
        -4.0599355101585388e-01 2.7393275499343872e-01</leafValues></_>
    <_>
      <internalNodes>
        0 -1 112209 -46669897 -882149381 1743771317 -202657222 -29417763
        172633563 1395906487 1206647531</internalNodes>
      <leafValues>
        -2.8615865111351013e-01 3.6572274565696716e-01</leafValues></_>
    <_>
      <internalNodes>
        0 -1 8666 -34809377 -47467605 -210272325 -696532899 1733031466
        1970862974 -823405061 -138422801</internalNodes>
      <leafValues>
        -1.7827102541923523e-01 5.4450809955596924e-01</leafValues></_>
    <_>
      <internalNodes>
        0 -1 448983 -791748215 1240437653 -1493172239 1924862578
        1651900158 1149229053 368416657 330996730</internalNodes>
      <leafValues>
        -3.1309479475021362e-01 3.6024913191795349e-01</leafValues></_>
    <_>
      <internalNodes>
        0 -1 11859 518950122 -2133577570 1610924183 1155400240 443432270
        4337928 1138388610 1758426525</internalNodes>
      <leafValues>
        -4.3369349837303162e-01 2.2796086966991425e-01</leafValues></_>
    <_>
      <internalNodes>
        0 -1 427751 -1147217925 -9474065 -587215106 -4464984 -1738826753
        -1124687875 -1391550977 628643293</internalNodes>
      <leafValues>
        -2.8861725330352783e-01 3.6846005916595459e-01</leafValues></_>
    <_>
      <internalNodes>
        0 -1 276804 -1334884372 -193318753 -1126174239 859647423
        -1795171107 -893567633 248507263 997067677</internalNodes>
      <leafValues>
        -2.9324093461036682e-01 3.7072896957397461e-01</leafValues></_>
    <_>
      <internalNodes>
        0 -1 325898 -1406109665 -768334757 -1878693265 1562914279
        -1130906635 -290132672 56295883 -627044119</internalNodes>
      <leafValues>
        -2.8554970026016235e-01 3.6223220825195312e-01</leafValues></_>
    <_>
      <internalNodes>
        0 -1 6883 -354525394 -442643156 820101630 1653118053 501506417
        1662748181 -909978069 1192544441</internalNodes>
      <leafValues>
        -3.9546585083007812e-01 2.7010241150856018e-01</leafValues></_>
    <_>
      <internalNodes>
        0 -1 8420 -3867224 1862293567 843165890 1050137822 1913775054
        1254788097 1377972627 1204271251</internalNodes>
      <leafValues>
        -4.1304811835289001e-01 2.4898868799209595e-01</leafValues></_>
    <_>
      <internalNodes>
        0 -1 353935 859578108 -1236250476 554696925 532283418 865607004
        -1283919356 25244573 225184085</internalNodes>
      <leafValues>
        -5.3062689304351807e-01 2.1860690414905548e-01</leafValues></_>
    <_>
      <internalNodes>
        0 -1 326382 -164114145 -721811494 1033916715 1503765673
        -2018775495 -1482588798 -1943220737 -1146575652</internalNodes>
      <leafValues>
        -2.5997778773307800e-01 4.4820430874824524e-01</leafValues></_>
    <_>
      <internalNodes>
        0 -1 385221 -580039489 -67799137 1853353693 2136833563
        -488702259 -170519498 -1610729909 1060536223</internalNodes>
      <leafValues>
        -2.2022342681884766e-01 4.5023658871650696e-01</leafValues></_></weakClassifiers></stage13>
</opencv_storage>
