<?xml version="1.0"?>
<opencv_storage>
<stage3>
  <maxWeakCount>15</maxWeakCount>
  <stageThreshold>-1.7020481824874878e+00</stageThreshold>
  <weakClassifiers>
    <_>
      <internalNodes>
        0 -1 285863 -704751 -35913793 -538976801 -67412481 -25428993
        -67129382 -33554497 850080699</internalNodes>
      <leafValues>
        -6.3936144113540649e-01 2.0330426096916199e-01</leafValues></_>
    <_>
      <internalNodes>
        0 -1 2616 -65553 -9506825 -4288529 -93131041 -152737929
        -806060227 2138008431 -33025</internalNodes>
      <leafValues>
        -3.8504543900489807e-01 4.3489775061607361e-01</leafValues></_>
    <_>
      <internalNodes>
        0 -1 325846 -1074308097 -4254241 -71434241 -582273 -1075839489
        -515 -1619088705 532286937</internalNodes>
      <leafValues>
        -3.1047275662422180e-01 4.5200198888778687e-01</leafValues></_>
    <_>
      <internalNodes>
        0 -1 290500 -102172168 -537960486 1458403456 1598533502
        -1821966712 -1520805197 -157747302 1003481003</internalNodes>
      <leafValues>
        -3.6882081627845764e-01 3.1827446818351746e-01</leafValues></_>
    <_>
      <internalNodes>
        0 -1 444860 -4326009 569882447 -1007682640 540145659 -143141059
        123032703 1689778098 1417670143</internalNodes>
      <leafValues>
        -4.1811257600784302e-01 2.8956848382949829e-01</leafValues></_>
    <_>
      <internalNodes>
        0 -1 302 -2045974657 -68193281 -117572097 -134481945 -51201793
        -151558731 -671785553 866586945</internalNodes>
      <leafValues>
        -2.7931824326515198e-01 3.9001551270484924e-01</leafValues></_>
    <_>
      <internalNodes>
        0 -1 352494 -1342357519 -1363247319 -1091899612 -285294628
        -1073777836 -1074004103 -268960444 -16982156</internalNodes>
      <leafValues>
        -2.9608601331710815e-01 3.3328247070312500e-01</leafValues></_>
    <_>
      <internalNodes>
        0 -1 451467 -1679576259 -1964270607 2059303628 1122956012
        -2111625 1149190013 -4205441 -689178885</internalNodes>
      <leafValues>
        -2.8156453371047974e-01 3.5324341058731079e-01</leafValues></_>
    <_>
      <internalNodes>
        0 -1 175979 840197304 661985529 -1856991684 736691932 354771668
        954940286 1250721020 503253892</internalNodes>
      <leafValues>
        -4.8210975527763367e-01 2.0364774763584137e-01</leafValues></_>
    <_>
      <internalNodes>
        0 -1 302549 838890515 -1335664909 2068708219 1924333683
        -1147339333 -100159041 -1079386693 740952069</internalNodes>
      <leafValues>
        -2.9598695039749146e-01 3.2512709498405457e-01</leafValues></_>
    <_>
      <internalNodes>
        0 -1 24780 -1880103189 -810848401 -3676562 1926513594 939224958
        1161735774 -205527306 1634854698</internalNodes>
      <leafValues>
        -4.0684205293655396e-01 2.3560385406017303e-01</leafValues></_>
    <_>
      <internalNodes>
        0 -1 384405 767499055 1891296430 -134533875 871912812 1868381251
        799729792 -806191292 76549184</internalNodes>
      <leafValues>
        -4.9573180079460144e-01 1.9431929290294647e-01</leafValues></_>
    <_>
      <internalNodes>
        0 -1 294359 -1125105555 -562273025 -1180163 -1080086633
        -1392574483 -85264401 -1073750049 200933865</internalNodes>
      <leafValues>
        -3.4519007802009583e-01 2.7608588337898254e-01</leafValues></_>
    <_>
      <internalNodes>
        0 -1 419137 -63045649 2075787199 -16777217 1914500607 1568615967
        2105528183 -1359487233 1983315934</internalNodes>
      <leafValues>
        -2.7698945999145508e-01 3.5361781716346741e-01</leafValues></_>
    <_>
      <internalNodes>
        0 -1 310429 -1505816965 -1149288734 -1096812729 -1837306276
        779991867 -300068483 393521141 -1641509603</internalNodes>
      <leafValues>
        -3.2100549340248108e-01 2.9597812891006470e-01</leafValues></_></weakClassifiers></stage3>
</opencv_storage>
