<?xml version="1.0"?>
<opencv_storage>
<stage5>
  <maxWeakCount>17</maxWeakCount>
  <stageThreshold>-1.5415800809860229e+00</stageThreshold>
  <weakClassifiers>
    <_>
      <internalNodes>
        0 -1 436967 -11 -144966657 -134776859 2146952701 -70255617
        -616312885 -67110153 -1612709889</internalNodes>
      <leafValues>
        -5.9621709585189819e-01 2.1404109895229340e-01</leafValues></_>
    <_>
      <internalNodes>
        0 -1 294191 -1107329153 2080004095 760952829 1061033853
        -1679983618 -67111937 536803583 531242460</internalNodes>
      <leafValues>
        -3.9839768409729004e-01 3.3159038424491882e-01</leafValues></_>
    <_>
      <internalNodes>
        0 -1 62 -891359249 -378535945 -323207956 -230232194 1534459255
        -1644199937 -773491333 -682131593</internalNodes>
      <leafValues>
        -3.1040042638778687e-01 3.7692385911941528e-01</leafValues></_>
    <_>
      <internalNodes>
        0 -1 331376 787242997 -1905365214 -17107116 -285278212
        -1075965180 -318775873 -268464 -17235976</internalNodes>
      <leafValues>
        -3.4854042530059814e-01 3.0539906024932861e-01</leafValues></_>
    <_>
      <internalNodes>
        0 -1 444861 -546308822 24479612 -271990726 805961179 -15810756
        92238717 1370486146 1149239263</internalNodes>
      <leafValues>
        -3.8017010688781738e-01 2.8341108560562134e-01</leafValues></_>
    <_>
      <internalNodes>
        0 -1 373051 -33728259 -553701633 -1075413025 -12628545 -71958561
        -348221377 -100811841 -1441660273</internalNodes>
      <leafValues>
        -2.7212646603584290e-01 3.6430627107620239e-01</leafValues></_>
    <_>
      <internalNodes>
        0 -1 326173 -1332208184 -11444355 2005073373 993181436
        -1129473356 -1077258450 1052597752 1069026716</internalNodes>
      <leafValues>
        -3.7459152936935425e-01 2.5999546051025391e-01</leafValues></_>
    <_>
      <internalNodes>
        0 -1 7498 -19398797 -100935809 -680538983 1920958319 -79440128
        1668666658 -1143113949 -1070604929</internalNodes>
      <leafValues>
        -2.4824476242065430e-01 3.7606835365295410e-01</leafValues></_>
    <_>
      <internalNodes>
        0 -1 345554 788294758 -1360644356 -1091840074 -365119624
        -880838572 -1409614981 -1296241340 -17244940</internalNodes>
      <leafValues>
        -3.6605274677276611e-01 2.3740167915821075e-01</leafValues></_>
    <_>
      <internalNodes>
        0 -1 425682 -17664129 -536922241 -419537419 -1409321473
        -808092185 -1342185603 -201623833 733641723</internalNodes>
      <leafValues>
        -2.5782063603401184e-01 3.3371227979660034e-01</leafValues></_>
    <_>
      <internalNodes>
        0 -1 10201 -924860673 -817922389 -890306834 1692352381
        -943722641 1144504103 108315890 1476394199</internalNodes>
      <leafValues>
        -2.5803780555725098e-01 3.6366021633148193e-01</leafValues></_>
    <_>
      <internalNodes>
        0 -1 372659 859455420 866126788 -1614144579 -1208173187
        526237085 -1707115011 79412153 531567721</internalNodes>
      <leafValues>
        -3.8847512006759644e-01 2.4729537963867188e-01</leafValues></_>
    <_>
      <internalNodes>
        0 -1 11226 -79791182 1039406398 2020654031 -536995938 1301355709
        1878479231 472266159 2141587466</internalNodes>
      <leafValues>
        -3.2875174283981323e-01 2.6486822962760925e-01</leafValues></_>
    <_>
      <internalNodes>
        0 -1 219744 508506324 -706007265 -1375819860 -354730245
        2060144823 -12220464 -1213286538 538444256</internalNodes>
      <leafValues>
        -4.5898827910423279e-01 1.8790201842784882e-01</leafValues></_>
    <_>
      <internalNodes>
        0 -1 451441 -102768677 -528801807 -1348012302 -252687745
        -1879573397 -696864433 800144711 -231538945</internalNodes>
      <leafValues>
        -2.1873633563518524e-01 4.2048785090446472e-01</leafValues></_>
    <_>
      <internalNodes>
        0 -1 223841 923724024 -923593993 -640427265 -809600177
        1596180387 -285838450 911983487 1125979951</internalNodes>
      <leafValues>
        -3.6178290843963623e-01 2.5920799374580383e-01</leafValues></_>
    <_>
      <internalNodes>
        0 -1 37716 -68171289 -1012230226 -302526487 542568940
        -1086390417 1180893054 1157560278 2001927163</internalNodes>
      <leafValues>
        -3.4338104724884033e-01 2.5957944989204407e-01</leafValues></_></weakClassifiers></stage5>
</opencv_storage>
