<?xml version="1.0"?>
<opencv_storage>
<stage1>
  <maxWeakCount>11</maxWeakCount>
  <stageThreshold>-1.7520526647567749e+00</stageThreshold>
  <weakClassifiers>
    <_>
      <internalNodes>
        0 -1 119657 -69405988 -50629 -572129313 -17509 -102921986
        -1140907269 -67392513 -1140907333</internalNodes>
      <leafValues>
        -6.8133485317230225e-01 2.9239857196807861e-01</leafValues></_>
    <_>
      <internalNodes>
        0 -1 13166 1008598264 1039989750 1075444124 1073617174 899353016
        2144872511 1948024830 1068333566</internalNodes>
      <leafValues>
        -5.4302817583084106e-01 3.3679124712944031e-01</leafValues></_>
    <_>
      <internalNodes>
        0 -1 302465 391870239 -1098273 -1080262657 1060855797
        -1094713857 -1149324657 469408767 168297732</internalNodes>
      <leafValues>
        -4.3656361103057861e-01 3.9936971664428711e-01</leafValues></_>
    <_>
      <internalNodes>
        0 -1 307245 -3605032 -538577442 -176161544 1538645881
        -1088762676 -693837985 -694684197 -74465797</internalNodes>
      <leafValues>
        -3.1914040446281433e-01 4.6448957920074463e-01</leafValues></_>
    <_>
      <internalNodes>
        0 -1 428273 -682113151 1941929879 1874852282 85298547 -33555832
        -549464873 1220440767 33549567</internalNodes>
      <leafValues>
        -3.0379623174667358e-01 4.3735277652740479e-01</leafValues></_>
    <_>
      <internalNodes>
        0 -1 9978 -2305 -293605955 -831787538 1786490606 -13173929
        1400094567 -202287241 1979047927</internalNodes>
      <leafValues>
        -4.1079527139663696e-01 3.0664819478988647e-01</leafValues></_>
    <_>
      <internalNodes>
        0 -1 345664 721321785 -1364410897 -318769688 -352387586 -189356
        -402917577 -1359037580 -84091596</internalNodes>
      <leafValues>
        -3.8418951630592346e-01 3.1447237730026245e-01</leafValues></_>
    <_>
      <internalNodes>
        0 -1 347375 356801813 1860795857 -143135243 -304267265
        -1074793076 -843067394 -1610614291 -1146221395</internalNodes>
      <leafValues>
        -3.1724214553833008e-01 3.5516738891601562e-01</leafValues></_>
    <_>
      <internalNodes>
        0 -1 402 113206855 -1124422475 -1572995 -570720457 -135790669
        -4200465 -1638404309 -243999483</internalNodes>
      <leafValues>
        -3.1933444738388062e-01 3.6040392518043518e-01</leafValues></_>
    <_>
      <internalNodes>
        0 -1 325866 1312669 -1502839297 -16973895 -187015283 246864245
        -637633537 -1141096962 1067978620</internalNodes>
      <leafValues>
        -4.7237023711204529e-01 2.4270358681678772e-01</leafValues></_>
    <_>
      <internalNodes>
        0 -1 338647 -1347282057 -1342247397 -8388650 -356321796
        -1510028444 -1108461699 -16779820 -21168908</internalNodes>
      <leafValues>
        -3.1578043103218079e-01 3.4722727537155151e-01</leafValues></_></weakClassifiers></stage1>
</opencv_storage>
